{"learner":{"attributes":{"best_iteration":"99","best_ntree_limit":"100"},"feature_names":["region","collects","followship_score","custom_filters_gardener_flagged","upvotes","content_warning","mirrors","is_original","is_content_warning","age","followship_rank","downvotes","main_content_focus","comments","language","max_age","max_mirrors","max_collects","max_comments","post_score"],"feature_types":["c","int","float","c","int","c","int","c","c","int","int","int","c","int","c","int","int","int","int","float"],"gradient_booster":{"model":{"gbtree_model_param":{"num_parallel_tree":"1","num_trees":"300","size_leaf_vector":"0"},"tree_info":[0,1,2,0,1,2,0,1,2,0,1,2,0,1,2,0,1,2,0,1,2,0,1,2,0,1,2,0,1,2,0,1,2,0,1,2,0,1,2,0,1,2,0,1,2,0,1,2,0,1,2,0,1,2,0,1,2,0,1,2,0,1,2,0,1,2,0,1,2,0,1,2,0,1,2,0,1,2,0,1,2,0,1,2,0,1,2,0,1,2,0,1,2,0,1,2,0,1,2,0,1,2,0,1,2,0,1,2,0,1,2,0,1,2,0,1,2,0,1,2,0,1,2,0,1,2,0,1,2,0,1,2,0,1,2,0,1,2,0,1,2,0,1,2,0,1,2,0,1,2,0,1,2,0,1,2,0,1,2,0,1,2,0,1,2,0,1,2,0,1,2,0,1,2,0,1,2,0,1,2,0,1,2,0,1,2,0,1,2,0,1,2,0,1,2,0,1,2,0,1,2,0,1,2,0,1,2,0,1,2,0,1,2,0,1,2,0,1,2,0,1,2,0,1,2,0,1,2,0,1,2,0,1,2,0,1,2,0,1,2,0,1,2,0,1,2,0,1,2,0,1,2,0,1,2,0,1,2,0,1,2,0,1,2,0,1,2,0,1,2,0,1,2,0,1,2,0,1,2,0,1,2,0,1,2,0,1,2,0,1,2,0,1,2,0,1,2,0,1,2],"trees":[{"base_weights":[-2.6807377E-1,-2.2498506E-1,1.3337266E0,4.4982088E-1,-2.2432615E-1],"categories":[],"categories_nodes":[],"categories_segments":[],"categories_sizes":[],"default_left":[0,0,1,0,0],"id":0,"left_children":[1,-1,3,-1,-1],"loss_changes":[1.5084793E4,0E0,1.5597378E3,0E0,0E0],"parents":[2147483647,0,0,2,2],"right_children":[2,-1,4,-1,-1],"split_conditions":[8.1184764E-5,-2.2498506E-1,-1.039823E0,4.4982088E-1,-2.2432615E-1],"split_indices":[2,0,19,0,0],"split_type":[0,0,0,0,0],"sum_hessian":[1.9540889E4,1.5022222E4,4.5186665E3,4.1857773E3,3.3288885E2],"tree_param":{"num_deleted":"0","num_feature":"20","num_nodes":"5","size_leaf_vector":"0"}},{"base_weights":[9.796562E-1,4.4997004E-1,-2.2495024E-1],"categories":[],"categories_nodes":[],"categories_segments":[],"categories_sizes":[],"default_left":[0,0,0],"id":1,"left_children":[1,-1,-1],"loss_changes":[1.758407E4,0E0,0E0],"parents":[2147483647,0,0],"right_children":[2,-1,-1],"split_conditions":[8.1184764E-5,4.4997004E-1,-2.2495024E-1],"split_indices":[2,0,0],"split_type":[0,0,0],"sum_hessian":[1.9540889E4,1.5022222E4,4.5186665E3],"tree_param":{"num_deleted":"0","num_feature":"20","num_nodes":"3","size_leaf_vector":"0"}},{"base_weights":[-7.115826E-1,-2.2497183E-1,5.5124644E-2,-2.2462398E-1,4.4865227E-1],"categories":[],"categories_nodes":[],"categories_segments":[],"categories_sizes":[],"default_left":[1,0,0,0,0],"id":2,"left_children":[1,-1,3,-1,-1],"loss_changes":[5.742383E2,0E0,1.0793655E3,0E0,0E0],"parents":[2147483647,0,0,2,2],"right_children":[2,-1,4,-1,-1],"split_conditions":[-1.039823E0,-2.2497183E-1,1.18901955E-8,-2.2462398E-1,4.4865227E-1],"split_indices":[19,0,2,0,0],"split_type":[0,0,0,0,0],"sum_hessian":[1.9540889E4,1.8610666E4,9.3022217E2,5.973333E2,3.3288885E2],"tree_param":{"num_deleted":"0","num_feature":"20","num_nodes":"5","size_leaf_vector":"0"}},{"base_weights":[-2.2344261E-1,-2.0059203E-1,9.1380584E-1,3.0265224E-1,-1.9997805E-1],"categories":[],"categories_nodes":[],"categories_segments":[],"categories_sizes":[],"default_left":[0,0,1,0,0],"id":3,"left_children":[1,-1,3,-1,-1],"loss_changes":[8.984319E3,0E0,7.504946E2,0E0,0E0],"parents":[2147483647,0,0,2,2],"right_children":[2,-1,4,-1,-1],"split_conditions":[8.1184764E-5,-2.0059203E-1,-1.039823E0,3.0265224E-1,-1.9997805E-1],"split_indices":[2,0,19,0,0],"split_type":[0,0,0,0,0],"sum_hessian":[1.774284E4,1.2751453E4,4.991386E3,4.708603E3,2.827832E2],"tree_param":{"num_deleted":"0","num_feature":"20","num_nodes":"5","size_leaf_vector":"0"}},{"base_weights":[6.987338E-1,3.0273795E-1,-2.0056458E-1],"categories":[],"categories_nodes":[],"categories_segments":[],"categories_sizes":[],"default_left":[0,0,0],"id":4,"left_children":[1,-1,-1],"loss_changes":[8.800733E3,0E0,0E0],"parents":[2147483647,0,0],"right_children":[2,-1,-1],"split_conditions":[8.1184764E-5,3.0273795E-1,-2.0056458E-1],"split_indices":[2,0,0],"split_type":[0,0,0],"sum_hessian":[2.0734562E4,1.68986E4,3.8359624E3],"tree_param":{"num_deleted":"0","num_feature":"20","num_nodes":"3","size_leaf_vector":"0"}},{"base_weights":[-6.30915E-1,-2.0057821E-1,4.4267554E-2,-2.0023169E-1,3.0220127E-1],"categories":[],"categories_nodes":[],"categories_segments":[],"categories_sizes":[],"default_left":[1,0,0,0,0],"id":5,"left_children":[1,-1,3,-1,-1],"loss_changes":[4.2438232E2,0E0,6.056241E2,0E0,0E0],"parents":[2147483647,0,0,2,2],"right_children":[2,-1,4,-1,-1],"split_conditions":[-1.039823E0,-2.0057821E-1,1.18901955E-8,-2.0023169E-1,3.0220127E-1],"split_indices":[19,0,2,0,0],"split_type":[0,0,0,0,0],"sum_hessian":[1.667939E4,1.5797794E4,8.8159607E2,5.0713297E2,3.7446307E2],"tree_param":{"num_deleted":"0","num_feature":"20","num_nodes":"5","size_leaf_vector":"0"}},{"base_weights":[-1.9828919E-1,-1.8528588E-1,7.369278E-1,2.4224561E-1,-1.8460098E-1],"categories":[],"categories_nodes":[],"categories_segments":[],"categories_sizes":[],"default_left":[0,0,1,0,0],"id":6,"left_children":[1,-1,3,-1,-1],"loss_changes":[5.922329E3,0E0,4.4656396E2,0E0,0E0],"parents":[2147483647,0,0,2,2],"right_children":[2,-1,4,-1,-1],"split_conditions":[8.1184764E-5,-1.8528588E-1,-1.039823E0,2.4224561E-1,-1.8460098E-1],"split_indices":[2,0,19,0,0],"split_type":[0,0,0,0,0],"sum_hessian":[1.5099469E4,1.0425326E4,4.6741436E3,4.4427363E3,2.3140726E2],"tree_param":{"num_deleted":"0","num_feature":"20","num_nodes":"5","size_leaf_vector":"0"}},{"base_weights":[5.734428E-1,2.4232915E-1,-1.8525583E-1],"categories":[],"categories_nodes":[],"categories_segments":[],"categories_sizes":[],"default_left":[0,0,0],"id":7,"left_children":[1,-1,-1],"loss_changes":[5.3253843E3,0E0,0E0],"parents":[2147483647,0,0],"right_children":[2,-1,-1],"split_conditions":[8.1184764E-5,2.4232915E-1,-1.8525583E-1],"split_indices":[2,0,0],"split_type":[0,0,0],"sum_hessian":[1.908E4,1.5943457E4,3.1365427E3],"tree_param":{"num_deleted":"0","num_feature":"20","num_nodes":"3","size_leaf_vector":"0"}},{"base_weights":[-5.807299E-1,-1.852688E-1,3.8526237E-2,-1.848838E-1,2.418908E-1],"categories":[],"categories_nodes":[],"categories_segments":[],"categories_sizes":[],"default_left":[1,0,0,0,0],"id":8,"left_children":[1,-1,3,-1,-1],"loss_changes":[3.1217578E2,0E0,3.8723108E2,0E0,0E0],"parents":[2147483647,0,0,2,2],"right_children":[2,-1,4,-1,-1],"split_conditions":[-1.039823E0,-1.852688E-1,1.18901955E-8,-1.848838E-1,2.418908E-1],"split_indices":[19,0,2,0,0],"split_type":[0,0,0,0,0],"sum_hessian":[1.3684545E4,1.2916299E4,7.682464E2,4.147339E2,3.5351248E2],"tree_param":{"num_deleted":"0","num_feature":"20","num_nodes":"5","size_leaf_vector":"0"}},{"base_weights":[-1.825468E-1,-1.7505231E-1,6.416924E-1,2.1010345E-1,-1.7422533E-1],"categories":[],"categories_nodes":[],"categories_segments":[],"categories_sizes":[],"default_left":[0,0,1,0,0],"id":9,"left_children":[1,-1,3,-1,-1],"loss_changes":[4.0755393E3,0E0,2.897749E2,0E0,0E0],"parents":[2147483647,0,0,2,2],"right_children":[2,-1,4,-1,-1],"split_conditions":[8.1184764E-5,-1.7505231E-1,-1.039823E0,2.1010345E-1,-1.7422533E-1],"split_indices":[2,0,19,0,0],"split_type":[0,0,0,0,0],"sum_hessian":[1.2329761E4,8.2949E3,4.0348606E3,3.8505403E3,1.8432048E2],"tree_param":{"num_deleted":"0","num_feature":"20","num_nodes":"5","size_leaf_vector":"0"}},{"base_weights":[5.041811E-1,2.1020009E-1,-1.7501491E-1],"categories":[],"categories_nodes":[],"categories_segments":[],"categories_sizes":[],"default_left":[0,0,0],"id":10,"left_children":[1,-1,-1],"loss_changes":[3.48656E3,0E0,0E0],"parents":[2147483647,0,0],"right_children":[2,-1,-1],"split_conditions":[8.1184764E-5,2.1020009E-1,-1.7501491E-1],"split_indices":[2,0,0],"split_type":[0,0,0],"sum_hessian":[1.6312993E4,1.3817074E4,2.495919E3],"tree_param":{"num_deleted":"0","num_feature":"20","num_nodes":"3","size_leaf_vector":"0"}},{"base_weights":[-5.473492E-1,-1.750301E-1,3.5092045E-2,-1.7457314E-1,2.0972876E-1],"categories":[],"categories_nodes":[],"categories_segments":[],"categories_sizes":[],"default_left":[1,0,0,0,0],"id":11,"left_children":[1,-1,3,-1,-1],"loss_changes":[2.2941968E2,0E0,2.6167212E2,0E0,0E0],"parents":[2147483647,0,0,2,2],"right_children":[2,-1,4,-1,-1],"split_conditions":[-1.039823E0,-1.750301E-1,1.18901955E-8,-1.7457314E-1,2.0972876E-1],"split_indices":[19,0,2,0,0],"split_type":[0,0,0,0,0],"sum_hessian":[1.0913904E4,1.0277192E4,6.3671155E2,3.3010065E2,3.0661093E2],"tree_param":{"num_deleted":"0","num_feature":"20","num_nodes":"5","size_leaf_vector":"0"}},{"base_weights":[-1.721527E-1,-1.6799402E-1,5.841855E-1,1.9082779E-1,-1.6695495E-1],"categories":[],"categories_nodes":[],"categories_segments":[],"categories_sizes":[],"default_left":[0,0,1,0,0],"id":12,"left_children":[1,-1,3,-1,-1],"loss_changes":[2.8726313E3,0E0,1.9691113E2,0E0,0E0],"parents":[2147483647,0,0,2,2],"right_children":[2,-1,4,-1,-1],"split_conditions":[8.1184764E-5,-1.6799402E-1,-1.039823E0,1.9082779E-1,-1.6695495E-1],"split_indices":[2,0,19,0,0],"split_type":[0,0,0,0,0],"sum_hessian":[9.791103E3,6.4724736E3,3.3186292E3,3.174612E3,1.4401697E2],"tree_param":{"num_deleted":"0","num_feature":"20","num_nodes":"5","size_leaf_vector":"0"}},{"base_weights":[4.6175665E-1,1.9094725E-1,-1.6794512E-1],"categories":[],"categories_nodes":[],"categories_segments":[],"categories_sizes":[],"default_left":[0,0,0],"id":13,"left_children":[1,-1,-1],"loss_changes":[2.3814607E3,0E0,0E0],"parents":[2147483647,0,0],"right_children":[2,-1,-1],"split_conditions":[8.1184764E-5,1.9094725E-1,-1.6794512E-1],"split_indices":[2,0,0],"split_type":[0,0,0],"sum_hessian":[1.3338233E4,1.1390356E4,1.9478763E3],"tree_param":{"num_deleted":"0","num_feature":"20","num_nodes":"3","size_leaf_vector":"0"}},{"base_weights":[-5.243917E-1,-1.6796452E-1,3.2917015E-2,-1.6739956E-1,1.9038224E-1],"categories":[],"categories_nodes":[],"categories_segments":[],"categories_sizes":[],"default_left":[1,0,0,0,0],"id":14,"left_children":[1,-1,3,-1,-1],"loss_changes":[1.6875806E2,0E0,1.8228853E2,0E0,0E0],"parents":[2147483647,0,0,2,2],"right_children":[2,-1,4,-1,-1],"split_conditions":[-1.039823E0,-1.6796452E-1,1.18901955E-8,-1.6739956E-1,1.9038224E-1],"split_indices":[19,0,2,0,0],"split_type":[0,0,0,0,0],"sum_hessian":[8.530301E3,8.0195996E3,5.1070114E2,2.5769424E2,2.5300691E2],"tree_param":{"num_deleted":"0","num_feature":"20","num_nodes":"5","size_leaf_vector":"0"}},{"base_weights":[-1.6505373E-1,-1.6302581E-1,5.4704756E-1,1.7843856E-1,-1.6169176E-1],"categories":[],"categories_nodes":[],"categories_segments":[],"categories_sizes":[],"default_left":[0,0,1,0,0],"id":15,"left_children":[1,-1,3,-1,-1],"loss_changes":[2.0553037E3,0E0,1.3757623E2,0E0,0E0],"parents":[2147483647,0,0,2,2],"right_children":[2,-1,4,-1,-1],"split_conditions":[8.1184764E-5,-1.6302581E-1,-1.039823E0,1.7843856E-1,-1.6169176E-1],"split_indices":[2,0,19,0,0],"split_type":[0,0,0,0,0],"sum_hessian":[7.626105E3,4.980186E3,2.6459192E3,2.5349219E3,1.1099726E2],"tree_param":{"num_deleted":"0","num_feature":"20","num_nodes":"5","size_leaf_vector":"0"}},{"base_weights":[4.3414944E-1,1.78591E-1,-1.6296078E-1],"categories":[],"categories_nodes":[],"categories_segments":[],"categories_sizes":[],"default_left":[0,0,0],"id":16,"left_children":[1,-1,-1],"loss_changes":[1.6689215E3,0E0,0E0],"parents":[2147483647,0,0],"right_children":[2,-1,-1],"split_conditions":[8.1184764E-5,1.78591E-1,-1.6296078E-1],"split_indices":[2,0,0],"split_type":[0,0,0],"sum_hessian":[1.0593003E4,9.093915E3,1.4990886E3],"tree_param":{"num_deleted":"0","num_feature":"20","num_nodes":"3","size_leaf_vector":"0"}},{"base_weights":[-5.0824636E-1,-1.6298637E-1,3.1505447E-2,-1.6226958E-1,1.7788145E-1],"categories":[],"categories_nodes":[],"categories_segments":[],"categories_sizes":[],"default_left":[1,0,0,0,0],"id":17,"left_children":[1,-1,3,-1,-1],"loss_changes":[1.243291E2,0E0,1.2939249E2,0E0,0E0],"parents":[2147483647,0,0,2,2],"right_children":[2,-1,4,-1,-1],"split_conditions":[-1.039823E0,-1.6298637E-1,1.18901955E-8,-1.6226958E-1,1.7788145E-1],"split_indices":[19,0,2,0,0],"split_type":[0,0,0,0,0],"sum_hessian":[6.5715938E3,6.1709595E3,4.0063446E2,1.98397E2,2.0223744E2],"tree_param":{"num_deleted":"0","num_feature":"20","num_nodes":"5","size_leaf_vector":"0"}},{"base_weights":[-1.6009325E-1,-1.5947747E-1,5.219816E-1,1.7010999E-1,-1.5774316E-1],"categories":[],"categories_nodes":[],"categories_segments":[],"categories_sizes":[],"default_left":[0,0,1,0,0],"id":18,"left_children":[1,-1,3,-1,-1],"loss_changes":[1.4851987E3,0E0,9.786432E1,0E0,0E0],"parents":[2147483647,0,0,2,2],"right_children":[2,-1,4,-1,-1],"split_conditions":[8.1184764E-5,-1.5947747E-1,-1.039823E0,1.7010999E-1,-1.5774316E-1],"split_indices":[2,0,19,0,0],"split_type":[0,0,0,0,0],"sum_hessian":[5.859229E3,3.793361E3,2.065868E3,1.981144E3,8.472403E1],"tree_param":{"num_deleted":"0","num_feature":"20","num_nodes":"5","size_leaf_vector":"0"}},{"base_weights":[4.154664E-1,1.7030805E-1,-1.5939043E-1],"categories":[],"categories_nodes":[],"categories_segments":[],"categories_sizes":[],"default_left":[0,0,0],"id":19,"left_children":[1,-1,-1],"loss_changes":[1.1891997E3,0E0,0E0],"parents":[2147483647,0,0],"right_children":[2,-1,-1],"split_conditions":[8.1184764E-5,1.7030805E-1,-1.5939043E-1],"split_indices":[2,0,0],"split_type":[0,0,0],"sum_hessian":[8.248151E3,7.1060054E3,1.142146E3],"tree_param":{"num_deleted":"0","num_feature":"20","num_nodes":"3","size_leaf_vector":"0"}},{"base_weights":[-4.9669912E-1,-1.5942454E-1,3.0594662E-2,-1.5849975E-1,1.6939668E-1],"categories":[],"categories_nodes":[],"categories_segments":[],"categories_sizes":[],"default_left":[1,0,0,0,0],"id":20,"left_children":[1,-1,3,-1,-1],"loss_changes":[9.1749146E1,0E0,9.298102E1,0E0,0E0],"parents":[2147483647,0,0,2,2],"right_children":[2,-1,4,-1,-1],"split_conditions":[-1.039823E0,-1.5942454E-1,1.18901955E-8,-1.5849975E-1,1.6939668E-1],"split_indices":[19,0,2,0,0],"split_type":[0,0,0,0,0],"sum_hessian":[5.010206E3,4.7007124E3,3.094936E2,1.5123145E2,1.5826215E2],"tree_param":{"num_deleted":"0","num_feature":"20","num_nodes":"5","size_leaf_vector":"0"}},{"base_weights":[-1.5657073E-1,-1.5691482E-1,5.045131E-1,5.477694E-1,-1.5464343E-1,1.6452697E-1,3.1078368E-1,-3.7742693E-2,1.330451E-1],"categories":[0],"categories_nodes":[6],"categories_segments":[0],"categories_sizes":[1],"default_left":[0,0,1,1,0,0,1,0,0],"id":21,"left_children":[1,-1,3,5,-1,-1,7,-1,-1],"loss_changes":[1.080562E3,0E0,7.047058E1,6.607056E-2,0E0,0E0,4.3281102E-1,0E0,0E0],"parents":[2147483647,0,0,2,2,3,3,6,6],"right_children":[2,-1,4,6,-1,-1,8,-1,-1],"split_conditions":[8.1184764E-5,-1.5691482E-1,-1.039823E0,-1.0491072E0,-1.5464343E-1,1.6452697E-1,NaN,-3.7742693E-2,1.330451E-1],"split_indices":[2,0,19,19,0,0,7,0,0],"split_type":[0,0,0,0,0,0,1,0,0],"sum_hessian":[4.45801E3,2.8682017E3,1.5898082E3,1.5255739E3,6.4234406E1,1.5200664E3,5.507487E0,1.2958792E0,4.2116075E0],"tree_param":{"num_deleted":"0","num_feature":"20","num_nodes":"9","size_leaf_vector":"0"}},{"base_weights":[4.0247732E-1,1.6459087E-1,-1.567981E-1],"categories":[],"categories_nodes":[],"categories_segments":[],"categories_sizes":[],"default_left":[0,0,0],"id":22,"left_children":[1,-1,-1],"loss_changes":[8.569662E2,0E0,0E0],"parents":[2147483647,0,0],"right_children":[2,-1,-1],"split_conditions":[8.1184764E-5,1.6459087E-1,-1.567981E-1],"split_indices":[2,0,0],"split_type":[0,0,0],"sum_hessian":[6.334588E3,5.4707007E3,8.638875E2],"tree_param":{"num_deleted":"0","num_feature":"20","num_nodes":"3","size_leaf_vector":"0"}},{"base_weights":[-4.883214E-1,-5.2281237E-1,3.003518E-2,-1.56928E-1,-3.2340518E-1,-1.5563732E-1,1.6340561E-1,-1.3257554E-1,5.1834706E-2],"categories":[],"categories_nodes":[],"categories_segments":[],"categories_sizes":[],"default_left":[1,1,0,0,0,0,0,0,0],"id":23,"left_children":[1,3,5,-1,7,-1,-1,-1,-1],"loss_changes":[6.7813965E1,3.0029297E-2,6.7373474E1,0E0,5.2458555E-1,0E0,0E0,0E0,0E0],"parents":[2147483647,0,0,1,1,2,2,4,4],"right_children":[2,4,6,-1,8,-1,-1,-1,-1],"split_conditions":[-1.039823E0,-1.0491072E0,1.18901955E-8,-1.56928E-1,2E0,-1.5563732E-1,1.6340561E-1,-1.3257554E-1,5.1834706E-2],"split_indices":[19,19,2,0,4,0,0,0,0],"split_type":[0,0,0,0,0,0,0,0,0],"sum_hessian":[3.7911384E3,3.5546094E3,2.3652898E2,3.547987E3,6.622336E0,1.1446003E2,1.2206895E2,5.4338465E0,1.1884897E0],"tree_param":{"num_deleted":"0","num_feature":"20","num_nodes":"9","size_leaf_vector":"0"}},{"base_weights":[-1.5401079E-1,-1.5504682E-1,4.920248E-1,5.340719E-1,-1.5205987E-1,1.6047403E-1,2.6299503E-1,-4.3604556E-2,1.2390704E-1],"categories":[0],"categories_nodes":[6],"categories_segments":[0],"categories_sizes":[1],"default_left":[0,0,1,1,0,0,1,0,0],"id":24,"left_children":[1,-1,3,5,-1,-1,7,-1,-1],"loss_changes":[7.89983E2,0E0,5.1184326E1,1.2478638E-1,0E0,0E0,4.011776E-1,0E0,0E0],"parents":[2147483647,0,0,2,2,3,3,6,6],"right_children":[2,-1,4,6,-1,-1,8,-1,-1],"split_conditions":[8.1184764E-5,-1.5504682E-1,-1.039823E0,-1.0491072E0,-1.5205987E-1,1.6047403E-1,NaN,-4.3604556E-2,1.2390704E-1],"split_indices":[2,0,19,19,0,0,7,0,0],"split_type":[0,0,0,0,0,0,1,0,0],"sum_hessian":[3.368302E3,2.1570874E3,1.2112146E3,1.162736E3,4.8478653E1,1.1581674E3,4.5685244E0,1.2358937E0,3.3326306E0],"tree_param":{"num_deleted":"0","num_feature":"20","num_nodes":"9","size_leaf_vector":"0"}},{"base_weights":[3.9326146E-1,1.6056323E-1,-1.5489064E-1],"categories":[],"categories_nodes":[],"categories_segments":[],"categories_sizes":[],"default_left":[0,0,0],"id":25,"left_children":[1,-1,-1],"loss_changes":[6.2245325E2,0E0,0E0],"parents":[2147483647,0,0],"right_children":[2,-1,-1],"split_conditions":[8.1184764E-5,1.6056323E-1,-1.5489064E-1],"split_indices":[2,0,0],"split_type":[0,0,0],"sum_hessian":[4.8178965E3,4.1678594E3,6.500373E2],"tree_param":{"num_deleted":"0","num_feature":"20","num_nodes":"3","size_leaf_vector":"0"}},{"base_weights":[-4.8215833E-1,-5.165056E-1,2.9742233E-2,-1.5506259E-1,-2.8256312E-1,-1.5336615E-1,1.590102E-1,-1.2597163E-1,5.6204114E-2],"categories":[],"categories_nodes":[],"categories_segments":[],"categories_sizes":[],"default_left":[1,1,0,0,0,0,0,0,0],"id":26,"left_children":[1,3,5,-1,7,-1,-1,-1,-1],"loss_changes":[5.0199097E1,8.526611E-2,4.9097984E1,0E0,4.9338758E-1,0E0,0E0,0E0,0E0],"parents":[2147483647,0,0,1,1,2,2,4,4],"right_children":[2,4,6,-1,8,-1,-1,-1,-1],"split_conditions":[-1.039823E0,-1.0491072E0,1.18901955E-8,-1.5506259E-1,2E0,-1.5336615E-1,1.590102E-1,-1.2597163E-1,5.6204114E-2],"split_indices":[19,19,2,0,4,0,0,0,0],"split_type":[0,0,0,0,0,0,0,0,0],"sum_hessian":[2.8532048E3,2.673791E3,1.7941371E2,2.6683652E3,5.4259205E0,8.619245E1,9.322126E1,4.281086E0,1.1448346E0],"tree_param":{"num_deleted":"0","num_feature":"20","num_nodes":"9","size_leaf_vector":"0"}},{"base_weights":[-1.5214014E-1,-1.53673E-1,4.8285967E-1,5.241058E-1,-1.4973861E-1,1.5756157E-1,2.16507E-1,-4.7700394E-2,1.1500173E-1],"categories":[0],"categories_nodes":[6],"categories_segments":[0],"categories_sizes":[1],"default_left":[0,0,1,1,0,0,1,0,0],"id":27,"left_children":[1,-1,3,5,-1,-1,7,-1,-1],"loss_changes":[5.794879E2,0E0,3.7410873E1,1.8414307E-1,0E0,0E0,3.640402E-1,0E0,0E0],"parents":[2147483647,0,0,2,2,3,3,6,6],"right_children":[2,-1,4,6,-1,-1,8,-1,-1],"split_conditions":[8.1184764E-5,-1.53673E-1,-1.039823E0,-1.0491072E0,-1.4973861E-1,1.5756157E-1,NaN,-4.7700394E-2,1.1500173E-1],"split_indices":[2,0,19,19,0,0,7,0,0],"split_type":[0,0,0,0,0,0,1,0,0],"sum_hessian":[2.5321357E3,1.6159419E3,9.161939E2,8.797101E2,3.6483856E1,8.75872E2,3.838055E0,1.1950824E0,2.6429725E0],"tree_param":{"num_deleted":"0","num_feature":"20","num_nodes":"9","size_leaf_vector":"0"}},{"base_weights":[3.8662398E-1,1.5768304E-1,-1.5346369E-1],"categories":[],"categories_nodes":[],"categories_segments":[],"categories_sizes":[],"default_left":[0,0,0],"id":28,"left_children":[1,-1,-1],"loss_changes":[4.546524E2,0E0,0E0],"parents":[2147483647,0,0],"right_children":[2,-1,-1],"split_conditions":[8.1184764E-5,1.5768304E-1,-1.5346369E-1],"split_indices":[2,0,0],"split_type":[0,0,0],"sum_hessian":[3.638926E3,3.1516433E3,4.872826E2],"tree_param":{"num_deleted":"0","num_feature":"20","num_nodes":"3","size_leaf_vector":"0"}},{"base_weights":[-4.7754523E-1,-5.1181895E-1,2.9668642E-2,-1.5369269E-1,-2.411464E-1,-1.5145257E-1,1.5563908E-1,-1.1916227E-1,5.9099626E-2],"categories":[],"categories_nodes":[],"categories_segments":[],"categories_sizes":[],"default_left":[1,1,0,0,0,0,0,0,0],"id":29,"left_children":[1,3,5,-1,7,-1,-1,-1,-1],"loss_changes":[3.7215088E1,1.4233398E-1,3.5920303E1,0E0,4.551305E-1,0E0,0E0,0E0,0E0],"parents":[2147483647,0,0,1,1,2,2,4,4],"right_children":[2,4,6,-1,8,-1,-1,-1,-1],"split_conditions":[-1.039823E0,-1.0491072E0,1.18901955E-8,-1.5369269E-1,2E0,-1.5145257E-1,1.5563908E-1,-1.1916227E-1,5.9099626E-2],"split_indices":[19,19,2,0,4,0,0,0,0],"split_type":[0,0,0,0,0,0,0,0,0],"sum_hessian":[2.1388823E3,2.0034923E3,1.3539008E2,1.9989806E3,4.5117745E0,6.4678474E1,7.071159E1,3.3957057E0,1.116069E0],"tree_param":{"num_deleted":"0","num_feature":"20","num_nodes":"9","size_leaf_vector":"0"}},{"base_weights":[-1.5075527E-1,-1.5265216E-1,4.7592574E-1,5.166693E-1,-1.4747205E-1,1.5543556E-1,1.7228201E-1,-5.018586E-2,1.062116E-1],"categories":[0],"categories_nodes":[6],"categories_segments":[0],"categories_sizes":[1],"default_left":[0,0,1,1,0,0,1,0,0],"id":30,"left_children":[1,-1,3,5,-1,-1,7,-1,-1],"loss_changes":[4.2608267E2,0E0,2.7474808E1,2.4169922E-1,0E0,0E0,3.2320035E-1,0E0,0E0],"parents":[2147483647,0,0,2,2,3,3,6,6],"right_children":[2,-1,4,6,-1,-1,8,-1,-1],"split_conditions":[8.1184764E-5,-1.5265216E-1,-1.039823E0,-1.0491072E0,-1.4747205E-1,1.5543556E-1,NaN,-5.018586E-2,1.062116E-1],"split_indices":[2,0,19,19,0,0,7,0,0],"split_type":[0,0,0,0,0,0,1,0,0],"sum_hessian":[1.8966407E3,1.2070952E3,6.895456E2,6.621279E2,2.7417667E1,6.588509E2,3.2770534E0,1.1702814E0,2.106772E0],"tree_param":{"num_deleted":"0","num_feature":"20","num_nodes":"9","size_leaf_vector":"0"}},{"base_weights":[3.817763E-1,1.555993E-1,-1.5237138E-1],"categories":[],"categories_nodes":[],"categories_segments":[],"categories_sizes":[],"default_left":[0,0,0],"id":31,"left_children":[1,-1,-1],"loss_changes":[3.33439E2,0E0,0E0],"parents":[2147483647,0,0],"right_children":[2,-1,-1],"split_conditions":[8.1184764E-5,1.555993E-1,-1.5237138E-1],"split_indices":[2,0,0],"split_type":[0,0,0],"sum_hessian":[2.7347327E3,2.370431E3,3.643019E2],"tree_param":{"num_deleted":"0","num_feature":"20","num_nodes":"3","size_leaf_vector":"0"}},{"base_weights":[-4.740092E-1,-5.082725E-1,2.9793262E-2,-1.526775E-1,-2.004063E-1,-1.4971228E-1,1.5290298E-1,-1.1216074E-1,6.064297E-2],"categories":[],"categories_nodes":[],"categories_segments":[],"categories_sizes":[],"default_left":[1,1,0,0,0,0,0,0,0],"id":32,"left_children":[1,3,5,-1,7,-1,-1,-1,-1],"loss_changes":[2.7632294E1,1.9888306E-1,2.6348679E1,0E0,4.1198346E-1,0E0,0E0,0E0,0E0],"parents":[2147483647,0,0,1,1,2,2,4,4],"right_children":[2,4,6,-1,8,-1,-1,-1,-1],"split_conditions":[-1.039823E0,-1.0491072E0,1.18901955E-8,-1.526775E-1,2E0,-1.4971228E-1,1.5290298E-1,-1.1216074E-1,6.064297E-2],"split_indices":[19,19,2,0,4,0,0,0,0],"split_type":[0,0,0,0,0,0,0,0,0],"sum_hessian":[1.5988824E3,1.4970592E3,1.01823166E2,1.4932416E3,3.8177142E0,4.8421963E1,5.34012E1,2.7178228E0,1.0998915E0],"tree_param":{"num_deleted":"0","num_feature":"20","num_nodes":"9","size_leaf_vector":"0"}},{"base_weights":[-1.4971067E-1,-1.5188283E-1,4.7046235E-1,5.1093525E-1,-1.4507905E-1,1.5385659E-1,1.315611E-1,-5.123772E-2,9.755681E-2],"categories":[0],"categories_nodes":[6],"categories_segments":[0],"categories_sizes":[1],"default_left":[0,0,1,1,0,0,1,0,0],"id":33,"left_children":[1,-1,3,5,-1,-1,7,-1,-1],"loss_changes":[3.1379755E2,0E0,2.0255058E1,2.949524E-1,0E0,0E0,2.8096712E-1,0E0,0E0],"parents":[2147483647,0,0,2,2,3,3,6,6],"right_children":[2,-1,4,6,-1,-1,8,-1,-1],"split_conditions":[8.1184764E-5,-1.5188283E-1,-1.039823E0,-1.0491072E0,-1.4507905E-1,1.5385659E-1,NaN,-5.123772E-2,9.755681E-2],"split_indices":[2,0,19,19,0,0,7,0,0],"split_type":[0,0,0,0,0,0,1,0,0],"sum_hessian":[1.4169722E3,8.998128E2,5.171593E2,4.965588E2,2.0600458E1,4.9370828E2,2.8505485E0,1.1588786E0,1.69167E0],"tree_param":{"num_deleted":"0","num_feature":"20","num_nodes":"9","size_leaf_vector":"0"}},{"base_weights":[3.781829E-1,1.5407631E-1,-1.5150596E-1],"categories":[],"categories_nodes":[],"categories_segments":[],"categories_sizes":[],"default_left":[0,0,0],"id":34,"left_children":[1,-1,-1],"loss_changes":[2.4527786E2,0E0,0E0],"parents":[2147483647,0,0],"right_children":[2,-1,-1],"split_conditions":[8.1184764E-5,1.5407631E-1,-1.5150596E-1],"split_indices":[2,0,0],"split_type":[0,0,0],"sum_hessian":[2.0478229E3,1.7759661E3,2.718568E2],"tree_param":{"num_deleted":"0","num_feature":"20","num_nodes":"3","size_leaf_vector":"0"}},{"base_weights":[-4.7120157E-1,-1.51916E-1,2.0280588E-2,-1.482082E-1,4.8535526E-1,1.518969E-2,1.5051782E-1],"categories":[],"categories_nodes":[],"categories_segments":[],"categories_sizes":[],"default_left":[1,0,0,0,0,0,0],"id":35,"left_children":[1,-1,3,-1,5,-1,-1],"loss_changes":[2.0655396E1,0E0,1.9547169E1,0E0,2.7985477E-1,0E0,0E0],"parents":[2147483647,0,0,2,2,4,4],"right_children":[2,-1,4,-1,6,-1,-1],"split_conditions":[-1.0491072E0,-1.51916E-1,1.18901955E-8,-1.482082E-1,-1.039823E0,1.518969E-2,1.5051782E-1],"split_indices":[19,0,2,0,19,0,0],"split_type":[0,0,0,0,0,0,0],"sum_hessian":[1.1928534E3,1.113134E3,7.971935E1,3.782638E1,4.189297E1,1.6688845E0,4.0224083E1],"tree_param":{"num_deleted":"0","num_feature":"20","num_nodes":"7","size_leaf_vector":"0"}},{"base_weights":[-1.4883989E-1,-1.5129043E-1,4.6592376E-1,5.063105E-1,-1.4239372E-1,1.52657E-1,1.06944874E-1,9.206762E-2,-5.1173232E-2],"categories":[],"categories_nodes":[],"categories_segments":[],"categories_sizes":[],"default_left":[0,0,1,1,0,0,0,0,0],"id":36,"left_children":[1,-1,3,5,-1,-1,7,-1,-1],"loss_changes":[2.3139397E2,0E0,1.4981827E1,3.2443237E-1,0E0,0E0,2.5357914E-1,0E0,0E0],"parents":[2147483647,0,0,2,2,3,3,6,6],"right_children":[2,-1,4,6,-1,-1,8,-1,-1],"split_conditions":[8.1184764E-5,-1.5129043E-1,-1.039823E0,-1.0491072E0,-1.4239372E-1,1.52657E-1,1E0,9.206762E-2,-5.1173232E-2],"split_indices":[2,0,19,19,0,0,4,0,0],"split_type":[0,0,0,0,0,0,0,0,0],"sum_hessian":[1.0568158E3,6.697439E2,3.8707187E2,3.715785E2,1.5493359E1,3.6895206E2,2.6264367E0,1.4650675E0,1.1613693E0],"tree_param":{"num_deleted":"0","num_feature":"20","num_nodes":"9","size_leaf_vector":"0"}},{"base_weights":[3.7545604E-1,1.5295069E-1,-1.5078452E-1],"categories":[],"categories_nodes":[],"categories_segments":[],"categories_sizes":[],"default_left":[0,0,0],"id":37,"left_children":[1,-1,-1],"loss_changes":[1.808325E2,0E0,0E0],"parents":[2147483647,0,0],"right_children":[2,-1,-1],"split_conditions":[8.1184764E-5,1.5295069E-1,-1.5078452E-1],"split_indices":[2,0,0],"split_type":[0,0,0],"sum_hessian":[1.529375E3,1.3267493E3,2.0262564E2],"tree_param":{"num_deleted":"0","num_feature":"20","num_nodes":"3","size_leaf_vector":"0"}},{"base_weights":[-4.6885088E-1,-1.5133432E-1,2.147984E-2,-1.4639781E-1,4.7377372E-1,1.6173473E-2,1.4826094E-1],"categories":[],"categories_nodes":[],"categories_segments":[],"categories_sizes":[],"default_left":[1,0,0,0,0,0,0],"id":38,"left_children":[1,-1,3,-1,5,-1,-1],"loss_changes":[1.55401E1,0E0,1.4328635E1,0E0,2.556882E-1,0E0,0E0],"parents":[2147483647,0,0,2,2,4,4],"right_children":[2,-1,4,-1,6,-1,-1],"split_conditions":[-1.0491072E0,-1.5133432E-1,1.18901955E-8,-1.4639781E-1,-1.039823E0,1.6173473E-2,1.4826094E-1],"split_indices":[19,0,2,0,19,0,0],"split_type":[0,0,0,0,0,0,0],"sum_hessian":[8.8871423E2,8.2853577E2,6.0178482E1,2.8263268E1,3.1915215E1,1.6497008E0,3.0265514E1],"tree_param":{"num_deleted":"0","num_feature":"20","num_nodes":"7","size_leaf_vector":"0"}},{"base_weights":[-1.4810869E-1,-1.5081868E-1,4.618569E-1,5.0233114E-1,-1.3926212E-1,1.5171516E-1,8.6287655E-2,-5.0268807E-2,8.66674E-2],"categories":[0],"categories_nodes":[6],"categories_segments":[0],"categories_sizes":[1],"default_left":[0,0,1,1,0,0,1,0,0],"id":39,"left_children":[1,-1,3,5,-1,-1,7,-1,-1],"loss_changes":[1.7074512E2,0E0,1.1115257E1,3.4889984E-1,0E0,0E0,2.2611402E-1,0E0,0E0],"parents":[2147483647,0,0,2,2,3,3,6,6],"right_children":[2,-1,4,6,-1,-1,8,-1,-1],"split_conditions":[8.1184764E-5,-1.5081868E-1,-1.039823E0,-1.0491072E0,-1.3926212E-1,1.5171516E-1,NaN,-5.0268807E-2,8.66674E-2],"split_indices":[2,0,19,19,0,0,7,0,0],"split_type":[0,0,0,0,0,0,1,0,0],"sum_hessian":[7.872945E2,4.979648E2,2.8932968E2,2.7765225E2,1.1677411E1,2.7519702E2,2.4552422E0,1.1665626E0,1.2886797E0],"tree_param":{"num_deleted":"0","num_feature":"20","num_nodes":"9","size_leaf_vector":"0"}},{"base_weights":[3.7333643E-1,1.5210812E-1,-1.5013973E-1],"categories":[],"categories_nodes":[],"categories_segments":[],"categories_sizes":[],"default_left":[0,0,0],"id":40,"left_children":[1,-1,-1],"loss_changes":[1.3355426E2,0E0,0E0],"parents":[2147483647,0,0],"right_children":[2,-1,-1],"split_conditions":[8.1184764E-5,1.5210812E-1,-1.5013973E-1],"split_indices":[2,0,0],"split_type":[0,0,0],"sum_hessian":[1.1400844E3,9.891633E2,1.5092099E2],"tree_param":{"num_deleted":"0","num_feature":"20","num_nodes":"3","size_leaf_vector":"0"}},{"base_weights":[-4.667435E-1,-1.5087715E-1,2.2970993E-2,-1.4433852E-1,4.6071732E-1,1.6353607E-2,1.4594561E-1],"categories":[],"categories_nodes":[],"categories_segments":[],"categories_sizes":[],"default_left":[1,0,0,0,0,0,0],"id":41,"left_children":[1,-1,3,-1,5,-1,-1],"loss_changes":[1.1751205E1,0E0,1.0491633E1,0E0,2.3955917E-1,0E0,0E0],"parents":[2147483647,0,0,2,2,4,4],"right_children":[2,-1,4,-1,6,-1,-1],"split_conditions":[-1.0491072E0,-1.5087715E-1,1.18901955E-8,-1.4433852E-1,-1.039823E0,1.6353607E-2,1.4594561E-1],"split_indices":[19,0,2,0,19,0,0],"split_type":[0,0,0,0,0,0,0],"sum_hessian":[6.6158325E2,6.160428E2,4.554044E1,2.1119995E1,2.4420443E1,1.6425705E0,2.2777872E1],"tree_param":{"num_deleted":"0","num_feature":"20","num_nodes":"7","size_leaf_vector":"0"}},{"base_weights":[-1.4744864E-1,-1.5042347E-1,4.578944E-1,4.9862638E-1,-1.355463E-1,1.5093903E-1,6.9374196E-2,8.2026616E-2,-4.8828714E-2],"categories":[],"categories_nodes":[],"categories_segments":[],"categories_sizes":[],"default_left":[0,0,1,1,0,0,0,0,0],"id":42,"left_children":[1,-1,3,5,-1,-1,7,-1,-1],"loss_changes":[1.26033585E2,0E0,8.272091E0,3.6784363E-1,0E0,0E0,2.0190462E-1,0E0,0E0],"parents":[2147483647,0,0,2,2,3,3,6,6],"right_children":[2,-1,4,6,-1,-1,8,-1,-1],"split_conditions":[8.1184764E-5,-1.5042347E-1,-1.039823E0,-1.0491072E0,-1.355463E-1,1.5093903E-1,1E0,8.2026616E-2,-4.8828714E-2],"split_indices":[2,0,19,19,0,0,4,0,0],"split_type":[0,0,0,0,0,0,0,0,0],"sum_hessian":[5.8613116E2,3.6996994E2,2.1616122E2,2.0733003E2,8.831194E0,2.05007E2,2.3230293E0,1.1416606E0,1.1813686E0],"tree_param":{"num_deleted":"0","num_feature":"20","num_nodes":"9","size_leaf_vector":"0"}},{"base_weights":[3.716239E-1,1.5146528E-1,-1.4951353E-1],"categories":[],"categories_nodes":[],"categories_segments":[],"categories_sizes":[],"default_left":[0,0,0],"id":43,"left_children":[1,-1,-1],"loss_changes":[9.8776924E1,0E0,0E0],"parents":[2147483647,0,0],"right_children":[2,-1,-1],"split_conditions":[8.1184764E-5,1.5146528E-1,-1.4951353E-1],"split_indices":[2,0,0],"split_type":[0,0,0],"sum_hessian":[8.4881885E2,7.364367E2,1.1238212E2],"tree_param":{"num_deleted":"0","num_feature":"20","num_nodes":"3","size_leaf_vector":"0"}},{"base_weights":[-4.6469206E-1,-1.5050164E-1,2.4760863E-2,-1.418904E-1,4.4544697E-1,1.5929498E-2,1.4340658E-1],"categories":[],"categories_nodes":[],"categories_segments":[],"categories_sizes":[],"default_left":[1,0,0,0,0,0,0],"id":44,"left_children":[1,-1,3,-1,5,-1,-1],"loss_changes":[8.941475E0,0E0,7.6663074E0,0E0,2.2782779E-1,0E0,0E0],"parents":[2147483647,0,0,2,2,4,4],"right_children":[2,-1,4,-1,6,-1,-1],"split_conditions":[-1.0491072E0,-1.5050164E-1,1.18901955E-8,-1.418904E-1,-1.039823E0,1.5929498E-2,1.4340658E-1],"split_indices":[19,0,2,0,19,0,0],"split_type":[0,0,0,0,0,0,0],"sum_hessian":[4.9231818E2,4.5771136E2,3.460681E1,1.5794954E1,1.8811855E1,1.6437525E0,1.7168104E1],"tree_param":{"num_deleted":"0","num_feature":"20","num_nodes":"7","size_leaf_vector":"0"}},{"base_weights":[-1.4679761E-1,-1.5006843E-1,4.5369568E-1,4.9486226E-1,-1.3113591E-1,1.5025532E-1,5.5826534E-2,-4.682808E-2,7.748425E-2],"categories":[0],"categories_nodes":[6],"categories_segments":[0],"categories_sizes":[1],"default_left":[0,0,1,1,0,0,1,0,0],"id":45,"left_children":[1,-1,3,5,-1,-1,7,-1,-1],"loss_changes":[9.303209E1,0E0,6.176861E0,3.817482E-1,0E0,0E0,1.78572E-1,0E0,0E0],"parents":[2147483647,0,0,2,2,3,3,6,6],"right_children":[2,-1,4,6,-1,-1,8,-1,-1],"split_conditions":[8.1184764E-5,-1.5006843E-1,-1.039823E0,-1.0491072E0,-1.3113591E-1,1.5025532E-1,NaN,-4.682808E-2,7.748425E-2],"split_indices":[2,0,19,19,0,0,7,0,0],"split_type":[0,0,0,0,0,0,1,0,0],"sum_hessian":[4.3628024E2,2.7474274E2,1.615375E2,1.5482707E2,6.710422E0,1.5260464E2,2.2224402E0,1.1977167E0,1.0247234E0],"tree_param":{"num_deleted":"0","num_feature":"20","num_nodes":"9","size_leaf_vector":"0"}},{"base_weights":[3.7016124E-1,1.5096015E-1,-1.4885087E-1],"categories":[],"categories_nodes":[],"categories_segments":[],"categories_sizes":[],"default_left":[0,0,0],"id":46,"left_children":[1,-1,-1],"loss_changes":[7.314379E1,0E0,0E0],"parents":[2147483647,0,0],"right_children":[2,-1,-1],"split_conditions":[8.1184764E-5,1.5096015E-1,-1.4885087E-1],"split_indices":[2,0,0],"split_type":[0,0,0],"sum_hessian":[6.3145404E2,5.477563E2,8.369778E1],"tree_param":{"num_deleted":"0","num_feature":"20","num_nodes":"3","size_leaf_vector":"0"}},{"base_weights":[-4.6251962E-1,-1.5017317E-1,2.6838806E-2,-1.3891114E-1,4.2733553E-1,1.5053391E-2,1.4049482E-1],"categories":[],"categories_nodes":[],"categories_segments":[],"categories_sizes":[],"default_left":[1,0,0,0,0,0,0],"id":47,"left_children":[1,-1,3,-1,5,-1,-1],"loss_changes":[6.855301E0,0E0,5.5849967E0,0E0,2.1803856E-1,0E0,0E0],"parents":[2147483647,0,0,2,2,4,4],"right_children":[2,-1,4,-1,6,-1,-1],"split_conditions":[-1.0491072E0,-1.5017317E-1,1.18901955E-8,-1.3891114E-1,-1.039823E0,1.5053391E-2,1.4049482E-1],"split_indices":[19,0,2,0,19,0,0],"split_type":[0,0,0,0,0,0,0],"sum_hessian":[3.663723E2,3.3991412E2,2.6458193E1,1.1830866E1,1.4627327E1,1.6515934E0,1.2975734E1],"tree_param":{"num_deleted":"0","num_feature":"20","num_nodes":"7","size_leaf_vector":"0"}},{"base_weights":[-1.460999E-1,-1.4972134E-1,4.489311E-1,1.4960138E-1,-2.938839E-1,1.3560123E-2,-1.2596577E-1],"categories":[],"categories_nodes":[],"categories_segments":[],"categories_sizes":[],"default_left":[0,0,1,0,0,0,0],"id":48,"left_children":[1,-1,3,-1,5,-1,-1],"loss_changes":[6.86533E1,0E0,4.648094E0,0E0,3.7255186E-1,0E0,0E0],"parents":[2147483647,0,0,2,2,4,4],"right_children":[2,-1,4,-1,6,-1,-1],"split_conditions":[8.1184764E-5,-1.4972134E-1,-1.0491072E0,1.4960138E-1,-1.039823E0,1.3560123E-2,-1.2596577E-1],"split_indices":[2,0,19,0,19,0,0],"split_type":[0,0,0,0,0,0,0],"sum_hessian":[3.2480884E2,2.0397345E2,1.2083539E2,1.1355989E2,7.2754917E0,2.1448233E0,5.130668E0],"tree_param":{"num_deleted":"0","num_feature":"20","num_nodes":"7","size_leaf_vector":"0"}},{"base_weights":[3.6882058E-1,1.5054497E-1,-1.4809646E-1],"categories":[],"categories_nodes":[],"categories_segments":[],"categories_sizes":[],"default_left":[0,0,0],"id":49,"left_children":[1,-1,-1],"loss_changes":[5.422197E1,0E0,0E0],"parents":[2147483647,0,0],"right_children":[2,-1,-1],"split_conditions":[8.1184764E-5,1.5054497E-1,-1.4809646E-1],"split_indices":[2,0,0],"split_type":[0,0,0],"sum_hessian":[4.6954504E2,4.0717563E2,6.2369408E1],"tree_param":{"num_deleted":"0","num_feature":"20","num_nodes":"3","size_leaf_vector":"0"}},{"base_weights":[-4.6004993E-1,-1.4986181E-1,2.915876E-2,-1.3526103E-1,4.060248E-1,1.3880212E-2,1.3707832E-1],"categories":[],"categories_nodes":[],"categories_segments":[],"categories_sizes":[],"default_left":[1,0,0,0,0,0,0],"id":50,"left_children":[1,-1,3,-1,5,-1,-1],"loss_changes":[5.303299E0,0E0,4.0531626E0,0E0,2.0795679E-1,0E0,0E0],"parents":[2147483647,0,0,2,2,4,4],"right_children":[2,-1,4,-1,6,-1,-1],"split_conditions":[-1.0491072E0,-1.4986181E-1,1.18901955E-8,-1.3526103E-1,-1.039823E0,1.3880212E-2,1.3707832E-1],"split_indices":[19,0,2,0,19,0,0],"split_type":[0,0,0,0,0,0,0],"sum_hessian":[2.7276413E2,2.5237134E2,2.03928E1,8.882478E0,1.1510322E1,1.6633661E0,9.846955E0],"tree_param":{"num_deleted":"0","num_feature":"20","num_nodes":"7","size_leaf_vector":"0"}},{"base_weights":[-1.4533295E-1,-1.4935121E-1,4.4318974E-1,1.489195E-1,-2.6698244E-1,1.0215711E-2,-1.2003527E-1],"categories":[],"categories_nodes":[],"categories_segments":[],"categories_sizes":[],"default_left":[0,0,1,0,0,0,0],"id":51,"left_children":[1,-1,3,-1,5,-1,-1],"loss_changes":[5.062568E1,0E0,3.591692E0,0E0,2.9541278E-1,0E0,0E0],"parents":[2147483647,0,0,2,2,4,4],"right_children":[2,-1,4,-1,6,-1,-1],"split_conditions":[8.1184764E-5,-1.4935121E-1,-1.0491072E0,1.489195E-1,-1.039823E0,1.0215711E-2,-1.2003527E-1],"split_indices":[2,0,19,0,19,0,0],"split_type":[0,0,0,0,0,0,0],"sum_hessian":[2.4196642E2,1.5142328E2,9.054313E1,8.45122E1,6.0309324E0,2.0775545E0,3.953378E0],"tree_param":{"num_deleted":"0","num_feature":"20","num_nodes":"7","size_leaf_vector":"0"}},{"base_weights":[3.674881E-1,1.5018131E-1,-1.4718933E-1],"categories":[],"categories_nodes":[],"categories_segments":[],"categories_sizes":[],"default_left":[0,0,0],"id":52,"left_children":[1,-1,-1],"loss_changes":[4.0238255E1,0E0,0E0],"parents":[2147483647,0,0],"right_children":[2,-1,-1],"split_conditions":[8.1184764E-5,1.5018131E-1,-1.4718933E-1],"split_indices":[2,0,0],"split_type":[0,0,0],"sum_hessian":[3.491075E2,3.025854E2,4.6522114E1],"tree_param":{"num_deleted":"0","num_feature":"20","num_nodes":"3","size_leaf_vector":"0"}},{"base_weights":[-4.5706844E-1,-1.4953962E-1,3.2232385E-2,-1.3081503E-1,3.8281673E-1,1.3650506E-2,1.3305192E-1],"categories":[],"categories_nodes":[],"categories_segments":[],"categories_sizes":[],"default_left":[1,0,0,0,0,0,0],"id":53,"left_children":[1,-1,3,-1,5,-1,-1],"loss_changes":[4.152996E0,0E0,2.93663E0,0E0,1.8822587E-1,0E0,0E0],"parents":[2147483647,0,0,2,2,4,4],"right_children":[2,-1,4,-1,6,-1,-1],"split_conditions":[-1.0491072E0,-1.4953962E-1,1.18901955E-8,-1.3081503E-1,-1.039823E0,1.3650506E-2,1.3305192E-1],"split_indices":[19,0,2,0,19,0,0],"split_type":[0,0,0,0,0,0,0],"sum_hessian":[2.0323645E2,1.8736575E2,1.5870687E1,6.6904025E0,9.1802845E0,1.6666629E0,7.5136213E0],"tree_param":{"num_deleted":"0","num_feature":"20","num_nodes":"7","size_leaf_vector":"0"}},{"base_weights":[-1.4440754E-1,-1.4892565E-1,4.3613157E-1,1.4815184E-1,-2.4000946E-1,-1.3602253E-2,-1.4107037E-1,9.298139E-2,-9.333065E-2],"categories":[],"categories_nodes":[],"categories_segments":[],"categories_sizes":[],"default_left":[0,0,1,0,0,0,0,0,0],"id":54,"left_children":[1,-1,3,-1,5,7,-1,-1,-1],"loss_changes":[3.7296936E1,0E0,2.8117733E0,0E0,3.1160808E-1,4.9161056E-1,0E0,0E0,0E0],"parents":[2147483647,0,0,2,2,4,4,5,5],"right_children":[2,-1,4,-1,6,8,-1,-1,-1],"split_conditions":[8.1184764E-5,-1.4892565E-1,-1.0491072E0,1.4815184E-1,4E0,-1.039823E0,-1.4107037E-1,9.298139E-2,-9.333065E-2],"split_indices":[2,0,19,0,4,19,0,0,0],"split_type":[0,0,0,0,0,0,0,0,0],"sum_hessian":[1.804499E2,1.124254E2,6.8024506E1,6.2923656E1,5.1008463E0,3.1057158E0,1.9951305E0,1.4677186E0,1.6379973E0],"tree_param":{"num_deleted":"0","num_feature":"20","num_nodes":"9","size_leaf_vector":"0"}},{"base_weights":[3.6606175E-1,1.4983608E-1,-1.4606307E-1],"categories":[],"categories_nodes":[],"categories_segments":[],"categories_sizes":[],"default_left":[0,0,0],"id":55,"left_children":[1,-1,-1],"loss_changes":[2.9894505E1,0E0,0E0],"parents":[2147483647,0,0],"right_children":[2,-1,-1],"split_conditions":[8.1184764E-5,1.4983608E-1,-1.4606307E-1],"split_indices":[2,0,0],"split_type":[0,0,0],"sum_hessian":[2.5961368E2,2.2486179E2,3.4751904E1],"tree_param":{"num_deleted":"0","num_feature":"20","num_nodes":"3","size_leaf_vector":"0"}},{"base_weights":[-4.5336854E-1,-1.4917824E-1,3.552518E-2,-1.2548132E-1,3.5690147E-1,1.3138323E-2,1.2834944E-1],"categories":[],"categories_nodes":[],"categories_segments":[],"categories_sizes":[],"default_left":[1,0,0,0,0,0,0],"id":56,"left_children":[1,-1,3,-1,5,-1,-1],"loss_changes":[3.292942E0,0E0,2.119209E0,0E0,1.6886151E-1,0E0,0E0],"parents":[2147483647,0,0,2,2,4,4],"right_children":[2,-1,4,-1,6,-1,-1],"split_conditions":[-1.0491072E0,-1.4917824E-1,1.18901955E-8,-1.2548132E-1,-1.039823E0,1.3138323E-2,1.2834944E-1],"split_indices":[19,0,2,0,19,0,0],"split_type":[0,0,0,0,0,0,0],"sum_hessian":[1.5163208E2,1.3912456E2,1.2507518E1,5.0604544E0,7.4470634E0,1.6741726E0,5.772891E0],"tree_param":{"num_deleted":"0","num_feature":"20","num_nodes":"7","size_leaf_vector":"0"}},{"base_weights":[-1.4337333E-1,-1.4840835E-1,4.2747882E-1,1.4723699E-1,-2.1814391E-1,8.161833E-3,-1.3221034E-1,8.8748425E-2,-8.53168E-2],"categories":[],"categories_nodes":[],"categories_segments":[],"categories_sizes":[],"default_left":[0,0,1,0,0,0,0,0,0],"id":57,"left_children":[1,-1,3,-1,5,7,-1,-1,-1],"loss_changes":[2.7436785E1,0E0,2.2429428E0,0E0,2.734984E-1,3.903647E-1,0E0,0E0,0E0],"parents":[2147483647,0,0,2,2,4,4,5,5],"right_children":[2,-1,4,-1,6,8,-1,-1,-1],"split_conditions":[8.1184764E-5,-1.4840835E-1,-1.0491072E0,1.4723699E-1,4E0,-1.039823E0,-1.3221034E-1,8.8748425E-2,-8.53168E-2],"split_indices":[2,0,19,0,4,19,0,0,0],"split_type":[0,0,0,0,0,0,0,0,0],"sum_hessian":[1.3475159E2,8.349774E1,5.125384E1,4.689504E1,4.3588037E0,2.6388423E0,1.7199613E0,1.3248817E0,1.3139607E0],"tree_param":{"num_deleted":"0","num_feature":"20","num_nodes":"9","size_leaf_vector":"0"}},{"base_weights":[3.6448643E-1,1.4947854E-1,-1.4463837E-1],"categories":[],"categories_nodes":[],"categories_segments":[],"categories_sizes":[],"default_left":[0,0,0],"id":58,"left_children":[1,-1,-1],"loss_changes":[2.2228281E1,0E0,0E0],"parents":[2147483647,0,0],"right_children":[2,-1,-1],"split_conditions":[8.1184764E-5,1.4947854E-1,-1.4463837E-1],"split_indices":[2,0,0],"split_type":[0,0,0],"sum_hessian":[1.931445E2,1.6714502E2,2.5999481E1],"tree_param":{"num_deleted":"0","num_feature":"20","num_nodes":"3","size_leaf_vector":"0"}},{"base_weights":[-4.4876248E-1,-1.487465E-1,3.962177E-2,-1.19224556E-1,3.3140153E-1,1.3604786E-2,1.229364E-1],"categories":[],"categories_nodes":[],"categories_segments":[],"categories_sizes":[],"default_left":[1,0,0,0,0,0,0],"id":59,"left_children":[1,-1,3,-1,5,-1,-1],"loss_changes":[2.6468983E0,0E0,1.5309365E0,0E0,1.4118081E-1,0E0,0E0],"parents":[2147483647,0,0,2,2,4,4],"right_children":[2,-1,4,-1,6,-1,-1],"split_conditions":[-1.0491072E0,-1.487465E-1,1.18901955E-8,-1.19224556E-1,-1.039823E0,1.3604786E-2,1.229364E-1],"split_indices":[19,0,2,0,19,0,0],"split_type":[0,0,0,0,0,0,0],"sum_hessian":[1.1331298E2,1.033402E2,9.972779E0,3.8476336E0,6.1251454E0,1.6569705E0,4.468175E0],"tree_param":{"num_deleted":"0","num_feature":"20","num_nodes":"7","size_leaf_vector":"0"}},{"base_weights":[-1.4201376E-1,-1.4775656E-1,4.16697E-1,1.461059E-1,-1.962043E-1,2.7101658E-2,-1.220703E-1,8.4823735E-2,-7.756818E-2],"categories":[],"categories_nodes":[],"categories_segments":[],"categories_sizes":[],"default_left":[0,0,1,0,0,0,0,0,0],"id":60,"left_children":[1,-1,3,-1,5,7,-1,-1,-1],"loss_changes":[2.015147E1,0E0,1.8112583E0,0E0,2.3733911E-1,3.1210518E-1,0E0,0E0,0E0],"parents":[2147483647,0,0,2,2,4,4,5,5],"right_children":[2,-1,4,-1,6,8,-1,-1,-1],"split_conditions":[8.1184764E-5,-1.4775656E-1,-1.0491072E0,1.461059E-1,4E0,-1.039823E0,-1.220703E-1,8.4823735E-2,-7.756818E-2],"split_indices":[2,0,19,0,4,19,0,0,0],"split_type":[0,0,0,0,0,0,0,0,0],"sum_hessian":[1.0085349E2,6.2046803E1,3.8806694E1,3.499666E1,3.8100379E0,2.272699E0,1.5373389E0,1.2047536E0,1.0679454E0],"tree_param":{"num_deleted":"0","num_feature":"20","num_nodes":"9","size_leaf_vector":"0"}},{"base_weights":[3.6259466E-1,1.490777E-1,-1.4283036E-1],"categories":[],"categories_nodes":[],"categories_segments":[],"categories_sizes":[],"default_left":[0,0,0],"id":61,"left_children":[1,-1,-1],"loss_changes":[1.6551315E1,0E0,0E0],"parents":[2147483647,0,0],"right_children":[2,-1,-1],"split_conditions":[8.1184764E-5,1.490777E-1,-1.4283036E-1],"split_indices":[2,0,0],"split_type":[0,0,0],"sum_hessian":[1.438102E2,1.2430776E2,1.9502441E1],"tree_param":{"num_deleted":"0","num_feature":"20","num_nodes":"3","size_leaf_vector":"0"}},{"base_weights":[-4.429041E-1,-1.4820841E-1,4.3365758E-2,-1.1208705E-1,3.0385524E-1,1.0963225E-1,4.4629925E-1,-7.803649E-2,9.863568E-2,1.8735747E-1,7.7816825E-3],"categories":[],"categories_nodes":[],"categories_segments":[],"categories_sizes":[],"default_left":[1,0,0,0,0,0,0,0,0,0,0],"id":62,"left_children":[1,-1,3,-1,5,7,9,-1,-1,-1,-1],"loss_changes":[2.1567822E0,0E0,1.100981E0,0E0,1.2113029E-1,4.036907E-1,2.2507674E-1,0E0,0E0,0E0,0E0],"parents":[2147483647,0,0,2,2,4,4,5,5,6,6],"right_children":[2,-1,4,-1,6,8,10,-1,-1,-1,-1],"split_conditions":[-1.0491072E0,-1.4820841E-1,1.18901955E-8,-1.1208705E-1,4E0,-1.039823E0,1.722E3,-7.803649E-2,9.863568E-2,1.8735747E-1,7.7816825E-3],"split_indices":[19,0,2,0,4,19,16,0,0,0,0],"split_type":[0,0,0,0,0,0,0,0,0,0,0],"sum_hessian":[8.489536E1,7.680457E1,8.090789E0,2.9439027E0,5.1468863E0,2.9263916E0,2.220495E0,1.0194479E0,1.9069436E0,1.2182767E0,1.0022182E0],"tree_param":{"num_deleted":"0","num_feature":"20","num_nodes":"11","size_leaf_vector":"0"}},{"base_weights":[-1.4062397E-1,-1.4691861E-1,4.0293327E-1,1.4468129E-1,-1.8295126E-1,8.092585E-3,-1.0761883E-1],"categories":[],"categories_nodes":[],"categories_segments":[],"categories_sizes":[],"default_left":[0,0,1,0,0,0,0],"id":63,"left_children":[1,-1,3,-1,5,-1,-1],"loss_changes":[1.47482E1,0E0,1.5076871E0,0E0,1.7082137E-1,0E0,0E0],"parents":[2147483647,0,0,2,2,4,4],"right_children":[2,-1,4,-1,6,-1,-1],"split_conditions":[8.1184764E-5,-1.4691861E-1,-1.0491072E0,1.4468129E-1,4E0,8.092585E-3,-1.0761883E-1],"split_indices":[2,0,19,0,4,0,0],"split_type":[0,0,0,0,0,0,0],"sum_hessian":[7.568105E1,4.61438E1,2.9537254E1,2.6170252E1,3.367001E0,1.9202466E0,1.4467543E0],"tree_param":{"num_deleted":"0","num_feature":"20","num_nodes":"7","size_leaf_vector":"0"}},{"base_weights":[3.601758E-1,1.4860009E-1,-1.4055146E-1],"categories":[],"categories_nodes":[],"categories_segments":[],"categories_sizes":[],"default_left":[0,0,0],"id":64,"left_children":[1,-1,-1],"loss_changes":[1.2353267E1,0E0,0E0],"parents":[2147483647,0,0],"right_children":[2,-1,-1],"split_conditions":[8.1184764E-5,1.4860009E-1,-1.4055146E-1],"split_indices":[2,0,0],"split_type":[0,0,0],"sum_hessian":[1.0722243E2,9.2532616E1,1.4689809E1],"tree_param":{"num_deleted":"0","num_feature":"20","num_nodes":"3","size_leaf_vector":"0"}},{"base_weights":[-4.3510422E-1,-1.4752056E-1,5.107451E-2,-1.0419946E-1,2.8290826E-1,3.4712473E-1,1.3070641E-4,2.4046782E-2,1.5997142E-1],"categories":[],"categories_nodes":[],"categories_segments":[],"categories_sizes":[],"default_left":[1,0,0,0,0,0,0,0,0],"id":65,"left_children":[1,-1,3,-1,5,7,-1,-1,-1],"loss_changes":[1.8091803E0,0E0,8.063462E-1,0E0,9.775275E-2,1.756956E-1,0E0,0E0,0E0],"parents":[2147483647,0,0,2,2,4,4,5,5],"right_children":[2,-1,4,-1,6,8,-1,-1,-1],"split_conditions":[-1.0491072E0,-1.4752056E-1,1.18901955E-8,-1.0419946E-1,1.1E1,2E0,1.3070641E-4,2.4046782E-2,1.5997142E-1],"split_indices":[19,0,2,0,6,4,0,0,0],"split_type":[0,0,0,0,0,0,0,0,0],"sum_hessian":[6.379792E1,5.713169E1,6.6662292E0,2.268913E0,4.3973165E0,3.3963263E0,1.00099E0,1.9827992E0,1.4135271E0],"tree_param":{"num_deleted":"0","num_feature":"20","num_nodes":"9","size_leaf_vector":"0"}},{"base_weights":[-1.3755879E-1,-1.4583157E-1,3.832524E-1,1.4287615E-1,-1.5161896E-1,2.858852E-2,-8.421465E-2],"categories":[0,1,2,3,5],"categories_nodes":[4],"categories_segments":[0],"categories_sizes":[5],"default_left":[0,0,1,0,0,0,0],"id":66,"left_children":[1,-1,3,-1,5,-1,-1],"loss_changes":[1.0765914E1,0E0,1.2623544E0,0E0,1.6389295E-1,0E0,0E0],"parents":[2147483647,0,0,2,2,4,4],"right_children":[2,-1,4,-1,6,-1,-1],"split_conditions":[8.1184764E-5,-1.4583157E-1,-1.0491072E0,1.4287615E-1,NaN,2.858852E-2,-8.421465E-2],"split_indices":[2,0,19,0,12,0,0],"split_type":[0,0,0,0,1,0,0],"sum_hessian":[5.7281242E1,3.4355736E1,2.2925508E1,1.962311E1,3.3023994E0,1.2237151E0,2.0786843E0],"tree_param":{"num_deleted":"0","num_feature":"20","num_nodes":"7","size_leaf_vector":"0"}},{"base_weights":[3.5670662E-1,1.4800705E-1,-1.3774587E-1],"categories":[],"categories_nodes":[],"categories_segments":[],"categories_sizes":[],"default_left":[0,0,0],"id":67,"left_children":[1,-1,-1],"loss_changes":[9.269306E0,0E0,0E0],"parents":[2147483647,0,0],"right_children":[2,-1,-1],"split_conditions":[8.1184764E-5,1.4800705E-1,-1.3774587E-1],"split_indices":[2,0,0],"split_type":[0,0,0],"sum_hessian":[8.011035E1,6.895604E1,1.1154314E1],"tree_param":{"num_deleted":"0","num_feature":"20","num_nodes":"3","size_leaf_vector":"0"}},{"base_weights":[-4.230362E-1,-1.4663027E-1,5.3676743E-2,-9.5773794E-2,2.4410681E-1,3.5011935E-1,-3.065207E-3,-2.5232993E-3,1.6944961E-1],"categories":[4],"categories_nodes":[4],"categories_segments":[0],"categories_sizes":[1],"default_left":[1,0,0,0,1,0,0,0,0],"id":68,"left_children":[1,-1,3,-1,5,7,-1,-1,-1],"loss_changes":[1.5754662E0,0E0,5.673784E-1,0E0,1.4186478E-1,2.856103E-1,0E0,0E0,0E0],"parents":[2147483647,0,0,2,2,4,4,5,5],"right_children":[2,-1,4,-1,6,8,-1,-1,-1],"split_conditions":[-1.0491072E0,-1.4663027E-1,1.18901955E-8,-9.5773794E-2,NaN,2E0,-3.065207E-3,-2.5232993E-3,1.6944961E-1],"split_indices":[19,0,2,0,12,4,0,0,0],"split_type":[0,0,0,0,1,0,0,0,0],"sum_hessian":[4.8440952E1,4.254884E1,5.8921137E0,1.763051E0,4.1290627E0,2.6484263E0,1.4806362E0,1.351874E0,1.2965523E0],"tree_param":{"num_deleted":"0","num_feature":"20","num_nodes":"9","size_leaf_vector":"0"}},{"base_weights":[-1.3348965E-1,-1.4441961E-1,3.6094698E-1,1.4059512E-1,-1.2501031E-1,1.4856959E-2,-8.6287215E-2],"categories":[],"categories_nodes":[],"categories_segments":[],"categories_sizes":[],"default_left":[0,0,1,0,0,0,0],"id":69,"left_children":[1,-1,3,-1,5,-1,-1],"loss_changes":[7.8490233E0,0E0,1.0530369E0,0E0,1.344816E-1,0E0,0E0],"parents":[2147483647,0,0,2,2,4,4],"right_children":[2,-1,4,-1,6,-1,-1],"split_conditions":[8.1184764E-5,-1.4441961E-1,-1.0491072E0,1.4059512E-1,4E0,1.4856959E-2,-8.6287215E-2],"split_indices":[2,0,19,0,4,0,0],"split_type":[0,0,0,0,0,0,0],"sum_hessian":[4.361871E1,2.5618612E1,1.80001E1,1.4763629E1,3.2364697E0,1.8964562E0,1.3400136E0],"tree_param":{"num_deleted":"0","num_feature":"20","num_nodes":"7","size_leaf_vector":"0"}},{"base_weights":[3.524415E-1,1.472538E-1,-1.343075E-1],"categories":[],"categories_nodes":[],"categories_segments":[],"categories_sizes":[],"default_left":[0,0,0],"id":70,"left_children":[1,-1,-1],"loss_changes":[6.9740424E0,0E0,0E0],"parents":[2147483647,0,0],"right_children":[2,-1,-1],"split_conditions":[8.1184764E-5,1.472538E-1,-1.343075E-1],"split_indices":[2,0,0],"split_type":[0,0,0],"sum_hessian":[5.999127E1,5.1474007E1,8.517262E0],"tree_param":{"num_deleted":"0","num_feature":"20","num_nodes":"3","size_leaf_vector":"0"}},{"base_weights":[-4.0878585E-1,-1.454737E-1,5.3503036E-2,-8.7076776E-2,2.0991616E-1,-1.7373424E-3,1.01508506E-1],"categories":[],"categories_nodes":[],"categories_segments":[],"categories_sizes":[],"default_left":[1,0,0,0,0,0,0],"id":71,"left_children":[1,-1,3,-1,5,-1,-1],"loss_changes":[1.3638015E0,0E0,3.983602E-1,0E0,1.3754024E-1,0E0,0E0],"parents":[2147483647,0,0,2,2,4,4],"right_children":[2,-1,4,-1,6,-1,-1],"split_conditions":[-1.0491072E0,-1.454737E-1,1.18901955E-8,-8.7076776E-2,-1.039823E0,-1.7373424E-3,1.01508506E-1],"split_indices":[19,0,2,0,19,0,0],"split_type":[0,0,0,0,0,0,0],"sum_hessian":[3.701549E1,3.1739857E1,5.275633E0,1.3821954E0,3.8934376E0,1.8095131E0,2.0839245E0],"tree_param":{"num_deleted":"0","num_feature":"20","num_nodes":"7","size_leaf_vector":"0"}},{"base_weights":[-1.2875806E-1,-1.425936E-1,3.3709154E-1,1.3774396E-1,-1.06672145E-1,3.148923E-2,-6.8788126E-2],"categories":[0,1,2,3,5],"categories_nodes":[4],"categories_segments":[0],"categories_sizes":[5],"default_left":[0,0,1,0,0,0,0],"id":72,"left_children":[1,-1,3,-1,5,-1,-1],"loss_changes":[5.7144794E0,0E0,8.755733E-1,0E0,1.3055834E-1,0E0,0E0],"parents":[2147483647,0,0,2,2,4,4],"right_children":[2,-1,4,-1,6,-1,-1],"split_conditions":[8.1184764E-5,-1.425936E-1,-1.0491072E0,1.3774396E-1,NaN,3.148923E-2,-6.8788126E-2],"split_indices":[2,0,19,0,12,0,0],"split_type":[0,0,0,0,1,0,0],"sum_hessian":[3.3404022E1,1.9142933E1,1.4261088E1,1.1157585E1,3.103503E0,1.1913378E0,1.9121652E0],"tree_param":{"num_deleted":"0","num_feature":"20","num_nodes":"7","size_leaf_vector":"0"}},{"base_weights":[3.4770063E-1,1.4628671E-1,-1.3010618E-1],"categories":[],"categories_nodes":[],"categories_segments":[],"categories_sizes":[],"default_left":[0,0,0],"id":73,"left_children":[1,-1,-1],"loss_changes":[5.2436547E0,0E0,0E0],"parents":[2147483647,0,0],"right_children":[2,-1,-1],"split_conditions":[8.1184764E-5,1.4628671E-1,-1.3010618E-1],"split_indices":[2,0,0],"split_type":[0,0,0],"sum_hessian":[4.5026115E1,3.8506737E1,6.5193777E0],"tree_param":{"num_deleted":"0","num_feature":"20","num_nodes":"3","size_leaf_vector":"0"}},{"base_weights":[-3.9328063E-1,-1.439749E-1,5.1268764E-2,-7.839086E-2,1.8211308E-1,-4.847662E-3,9.5942676E-2],"categories":[],"categories_nodes":[],"categories_segments":[],"categories_sizes":[],"default_left":[1,0,0,0,0,0,0],"id":74,"left_children":[1,-1,3,-1,5,-1,-1],"loss_changes":[1.1581373E0,0E0,2.8086102E-1,0E0,1.31026E-1,0E0,0E0],"parents":[2147483647,0,0,2,2,4,4],"right_children":[2,-1,4,-1,6,-1,-1],"split_conditions":[-1.0491072E0,-1.439749E-1,1.18901955E-8,-7.839086E-2,-1.039823E0,-4.847662E-3,9.5942676E-2],"split_indices":[19,0,2,0,19,0,0],"split_type":[0,0,0,0,0,0,0],"sum_hessian":[2.8431807E1,2.372803E1,4.7037773E0,1.0937902E0,3.609987E0,1.8412988E0,1.7686881E0],"tree_param":{"num_deleted":"0","num_feature":"20","num_nodes":"7","size_leaf_vector":"0"}},{"base_weights":[-1.2245874E-1,-1.4025337E-1,3.1155634E-1,1.3423991E-1,-8.8573895E-2,2.3932979E-2,-7.642235E-2],"categories":[],"categories_nodes":[],"categories_segments":[],"categories_sizes":[],"default_left":[0,0,1,0,0,0,0],"id":75,"left_children":[1,-1,3,-1,5,-1,-1],"loss_changes":[4.162664E0,0E0,7.183318E-1,0E0,1.3219354E-1,0E0,0E0],"parents":[2147483647,0,0,2,2,4,4],"right_children":[2,-1,4,-1,6,-1,-1],"split_conditions":[8.1184764E-5,-1.4025337E-1,-1.0491072E0,1.3423991E-1,4E0,2.3932979E-2,-7.642235E-2],"split_indices":[2,0,19,0,4,0,0],"split_type":[0,0,0,0,0,0,0],"sum_hessian":[2.5823334E1,1.4343069E1,1.1480264E1,8.4812E0,2.999064E0,1.7479997E0,1.2510644E0],"tree_param":{"num_deleted":"0","num_feature":"20","num_nodes":"7","size_leaf_vector":"0"}},{"base_weights":[3.417082E-1,1.450434E-1,-1.2518074E-1],"categories":[],"categories_nodes":[],"categories_segments":[],"categories_sizes":[],"default_left":[0,0,0],"id":76,"left_children":[1,-1,-1],"loss_changes":[3.9592237E0,0E0,0E0],"parents":[2147483647,0,0],"right_children":[2,-1,-1],"split_conditions":[8.1184764E-5,1.450434E-1,-1.2518074E-1],"split_indices":[2,0,0],"split_type":[0,0,0],"sum_hessian":[3.392083E1,2.8887842E1,5.032988E0],"tree_param":{"num_deleted":"0","num_feature":"20","num_nodes":"3","size_leaf_vector":"0"}},{"base_weights":[-3.752428E-1,-1.4204682E-1,4.691012E-2,-1.1005318E-1,8.092891E-2,-6.758676E-2,3.0532856E-2],"categories":[],"categories_nodes":[],"categories_segments":[],"categories_sizes":[],"default_left":[1,0,0,0,0,0,0],"id":77,"left_children":[1,-1,3,5,-1,-1,-1],"loss_changes":[9.782338E-1,0E0,2.1373697E-1,1.156255E-1,0E0,0E0,0E0],"parents":[2147483647,0,0,2,2,3,3],"right_children":[2,-1,4,6,-1,-1,-1],"split_conditions":[-1.0491072E0,-1.4204682E-1,5E0,3E0,8.092891E-2,-6.758676E-2,3.0532856E-2],"split_indices":[19,0,4,17,0,0,0],"split_type":[0,0,0,0,0,0,0],"sum_hessian":[2.205052E1,1.7788939E1,4.2615814E0,2.79742E0,1.4641613E0,1.7706426E0,1.0267774E0],"tree_param":{"num_deleted":"0","num_feature":"20","num_nodes":"7","size_leaf_vector":"0"}},{"base_weights":[-1.157534E-1,-1.3729355E-1,2.807468E-1,1.3002549E-1,-7.8937516E-2,3.5817057E-2,-6.1690878E-2],"categories":[0,1,2,3,5],"categories_nodes":[4],"categories_segments":[0],"categories_sizes":[5],"default_left":[0,0,1,0,0,0,0],"id":78,"left_children":[1,-1,3,-1,5,-1,-1],"loss_changes":[3.007546E0,0E0,6.082558E-1,0E0,1.240795E-1,0E0,0E0],"parents":[2147483647,0,0,2,2,4,4],"right_children":[2,-1,4,-1,6,-1,-1],"split_conditions":[8.1184764E-5,-1.3729355E-1,-1.0491072E0,1.3002549E-1,NaN,3.5817057E-2,-6.1690878E-2],"split_indices":[2,0,19,0,12,0,0],"split_type":[0,0,0,0,1,0,0],"sum_hessian":[2.0238274E1,1.07846985E1,9.453575E0,6.492692E0,2.9608831E0,1.1766696E0,1.7842137E0],"tree_param":{"num_deleted":"0","num_feature":"20","num_nodes":"7","size_leaf_vector":"0"}},{"base_weights":[3.338815E-1,1.4346148E-1,-1.1968292E-1],"categories":[],"categories_nodes":[],"categories_segments":[],"categories_sizes":[],"default_left":[0,0,0],"id":79,"left_children":[1,-1,-1],"loss_changes":[3.0168767E0,0E0,0E0],"parents":[2147483647,0,0],"right_children":[2,-1,-1],"split_conditions":[8.1184764E-5,1.4346148E-1,-1.1968292E-1],"split_indices":[2,0,0],"split_type":[0,0,0],"sum_hessian":[2.5720877E1,2.177912E1,3.941758E0],"tree_param":{"num_deleted":"0","num_feature":"20","num_nodes":"3","size_leaf_vector":"0"}},{"base_weights":[-3.5113207E-1,-1.39595E-1,4.5620516E-2,-9.020845E-2,6.703971E-2,1.8535249E-2,-6.664665E-2],"categories":[],"categories_nodes":[],"categories_segments":[],"categories_sizes":[],"default_left":[1,0,0,0,0,0,0],"id":80,"left_children":[1,-1,3,5,-1,-1,-1],"loss_changes":[8.5526824E-1,0E0,1.4154623E-1,8.5151225E-2,0E0,0E0,0E0],"parents":[2147483647,0,0,2,2,3,3],"right_children":[2,-1,4,6,-1,-1,-1],"split_conditions":[-1.0491072E0,-1.39595E-1,5E0,4.7E1,6.703971E-2,1.8535249E-2,-6.664665E-2],"split_indices":[19,0,4,9,0,0,0],"split_type":[0,0,0,0,0,0,0],"sum_hessian":[1.7410261E1,1.3385212E1,4.0250497E0,2.5614874E0,1.4635621E0,1.4374306E0,1.1240567E0],"tree_param":{"num_deleted":"0","num_feature":"20","num_nodes":"7","size_leaf_vector":"0"}},{"base_weights":[-1.0760967E-1,-3.830156E-1,3.33716E-1,-1.3352805E-1,-1.6353307E-2,-1.3395683E-2,1.2236499E-1],"categories":[],"categories_nodes":[],"categories_segments":[],"categories_sizes":[],"default_left":[1,0,0,0,0,0,0],"id":81,"left_children":[1,3,5,-1,-1,-1,-1],"loss_changes":[2.2037904E0,1.9970441E-1,2.1738529E-1,0E0,0E0,0E0,0E0],"parents":[2147483647,0,0,1,1,2,2],"right_children":[2,4,6,-1,-1,-1,-1],"split_conditions":[8E0,8.1184764E-5,5.1E1,-1.3352805E-1,-1.6353307E-2,-1.3395683E-2,1.2236499E-1],"split_indices":[18,2,9,0,0,0,0],"split_type":[0,0,0,0,0,0,0],"sum_hessian":[1.6080046E1,9.982603E0,6.097443E0,8.097501E0,1.8851024E0,1.0645481E0,5.032895E0],"tree_param":{"num_deleted":"0","num_feature":"20","num_nodes":"7","size_leaf_vector":"0"}},{"base_weights":[3.2457042E-1,1.4147511E-1,-1.13656364E-1],"categories":[],"categories_nodes":[],"categories_segments":[],"categories_sizes":[],"default_left":[0,0,0],"id":82,"left_children":[1,-1,-1],"loss_changes":[2.3138893E0,0E0,0E0],"parents":[2147483647,0,0],"right_children":[2,-1,-1],"split_conditions":[8.1184764E-5,1.4147511E-1,-1.13656364E-1],"split_indices":[2,0,0],"split_type":[0,0,0],"sum_hessian":[1.9647615E1,1.6523792E1,3.1238232E0],"tree_param":{"num_deleted":"0","num_feature":"20","num_nodes":"3","size_leaf_vector":"0"}},{"base_weights":[-3.2498306E-1,-1.365254E-1,4.0777355E-2,1.6385785E-1,-3.8326792E-2,9.537611E-2,-2.3137406E-2],"categories":[0,1,4,0],"categories_nodes":[2,3],"categories_segments":[0,3],"categories_sizes":[3,1],"default_left":[1,0,1,1,0,0,0],"id":83,"left_children":[1,-1,3,5,-1,-1,-1],"loss_changes":[7.3052824E-1,0E0,1.2140026E-1,1.4470626E-1,0E0,0E0,0E0],"parents":[2147483647,0,0,2,2,3,3],"right_children":[2,-1,4,6,-1,-1,-1],"split_conditions":[-1.0491072E0,-1.365254E-1,NaN,NaN,-3.8326792E-2,9.537611E-2,-2.3137406E-2],"split_indices":[19,0,12,7,0,0,0],"split_type":[0,0,1,1,0,0,0],"sum_hessian":[1.3961762E1,1.011841E1,3.8433518E0,2.237234E0,1.6061178E0,1.1699843E0,1.0672498E0],"tree_param":{"num_deleted":"0","num_feature":"20","num_nodes":"7","size_leaf_vector":"0"}},{"base_weights":[-9.859345E-2,-1.2916975E-1,2.1783821E-1,1.1977009E-1,-6.830741E-2,3.041789E-2,-5.276993E-2],"categories":[0,1,2,3,5],"categories_nodes":[4],"categories_segments":[0],"categories_sizes":[5],"default_left":[0,0,1,0,0,0,0],"id":84,"left_children":[1,-1,3,-1,5,-1,-1],"loss_changes":[1.5706404E0,0E0,4.353519E-1,0E0,8.911936E-2,0E0,0E0],"parents":[2147483647,0,0,2,2,4,4],"right_children":[2,-1,4,-1,6,-1,-1],"split_conditions":[8.1184764E-5,-1.2916975E-1,-1.0491072E0,1.1977009E-1,NaN,3.041789E-2,-5.276993E-2],"split_indices":[2,0,19,0,12,0,0],"split_type":[0,0,0,0,1,0,0],"sum_hessian":[1.3058973E1,6.1969676E0,6.8620057E0,3.9578235E0,2.904182E0,1.1492085E0,1.7549735E0],"tree_param":{"num_deleted":"0","num_feature":"20","num_nodes":"7","size_leaf_vector":"0"}},{"base_weights":[3.12058E-1,1.3900767E-1,-1.07604936E-1],"categories":[],"categories_nodes":[],"categories_segments":[],"categories_sizes":[],"default_left":[0,0,0],"id":85,"left_children":[1,-1,-1],"loss_changes":[1.805091E0,0E0,0E0],"parents":[2147483647,0,0],"right_children":[2,-1,-1],"split_conditions":[8.1184764E-5,1.3900767E-1,-1.07604936E-1],"split_indices":[2,0,0],"split_type":[0,0,0],"sum_hessian":[1.5149304E1,1.26132765E1,2.5360277E0],"tree_param":{"num_deleted":"0","num_feature":"20","num_nodes":"3","size_leaf_vector":"0"}},{"base_weights":[-2.9401267E-1,-1.328064E-1,4.4009786E-2,-7.995993E-2,5.9546005E-2,-6.616196E-2,2.4335138E-2],"categories":[],"categories_nodes":[],"categories_segments":[],"categories_sizes":[],"default_left":[1,0,0,0,0,0,0],"id":86,"left_children":[1,-1,3,5,-1,-1,-1],"loss_changes":[6.4376926E-1,0E0,1.05960265E-1,9.312915E-2,0E0,0E0,0E0],"parents":[2147483647,0,0,2,2,3,3],"right_children":[2,-1,4,6,-1,-1,-1],"split_conditions":[-1.0491072E0,-1.328064E-1,5E0,-1.0044643E0,5.9546005E-2,-6.616196E-2,2.4335138E-2],"split_indices":[19,0,4,19,0,0,0],"split_type":[0,0,0,0,0,0,0],"sum_hessian":[1.1422232E1,7.717942E0,3.7042897E0,2.3226862E0,1.3816035E0,1.0431339E0,1.2795523E0],"tree_param":{"num_deleted":"0","num_feature":"20","num_nodes":"7","size_leaf_vector":"0"}},{"base_weights":[-8.898024E-2,-3.3521304E-1,2.816761E-1,-1.2371379E-1,-1.7278753E-2,-1.1981962E-2,1.1052837E-1],"categories":[],"categories_nodes":[],"categories_segments":[],"categories_sizes":[],"default_left":[1,0,0,0,0,0,0],"id":87,"left_children":[1,3,5,-1,-1,-1,-1],"loss_changes":[1.1639407E0,1.3686794E-1,1.6038069E-1,0E0,0E0,0E0,0E0],"parents":[2147483647,0,0,1,1,2,2],"right_children":[2,4,6,-1,-1,-1,-1],"split_conditions":[8E0,8.1184764E-5,5.1E1,-1.2371379E-1,-1.7278753E-2,-1.1981962E-2,1.1052837E-1],"split_indices":[18,2,9,0,0,0,0],"split_type":[0,0,0,0,0,0,0],"sum_hessian":[1.0718478E1,6.4976273E0,4.2208514E0,4.704534E0,1.7930932E0,1.0112902E0,3.2095613E0],"tree_param":{"num_deleted":"0","num_feature":"20","num_nodes":"7","size_leaf_vector":"0"}},{"base_weights":[2.9945475E-1,1.3599508E-1,-1.00972004E-1],"categories":[],"categories_nodes":[],"categories_segments":[],"categories_sizes":[],"default_left":[0,0,0],"id":88,"left_children":[1,-1,-1],"loss_changes":[1.4006289E0,0E0,0E0],"parents":[2147483647,0,0],"right_children":[2,-1,-1],"split_conditions":[8.1184764E-5,1.3599508E-1,-1.00972004E-1],"split_indices":[2,0,0],"split_type":[0,0,0],"sum_hessian":[1.1753386E1,9.695265E0,2.0581212E0],"tree_param":{"num_deleted":"0","num_feature":"20","num_nodes":"3","size_leaf_vector":"0"}},{"base_weights":[-2.6517916E-1,-1.2829806E-1,3.887768E-2,4.3337513E-2,-3.2639932E-2],"categories":[0,1,4],"categories_nodes":[2],"categories_segments":[0],"categories_sizes":[3],"default_left":[1,0,1,0,0],"id":89,"left_children":[1,-1,3,-1,-1],"loss_changes":[5.3403056E-1,0E0,8.6880095E-2,0E0,0E0],"parents":[2147483647,0,0,2,2],"right_children":[2,-1,4,-1,-1],"split_conditions":[-1.0491072E0,-1.2829806E-1,NaN,4.3337513E-2,-3.2639932E-2],"split_indices":[19,0,12,0,0],"split_type":[0,0,1,0,0],"sum_hessian":[9.473035E0,5.9089265E0,3.5641086E0,2.0909796E0,1.4731293E0],"tree_param":{"num_deleted":"0","num_feature":"20","num_nodes":"5","size_leaf_vector":"0"}},{"base_weights":[-7.8260824E-2,1.7825124E-1,-1.13288924E-1,-1.3139066E-1,1.1388555E-1,5.5477664E-2,-1.16309784E-1],"categories":[],"categories_nodes":[],"categories_segments":[],"categories_sizes":[],"default_left":[0,0,0,0,0,0,0],"id":90,"left_children":[1,3,-1,5,-1,-1,-1],"loss_changes":[8.388094E-1,4.2959553E-1,0E0,3.2648548E-1,0E0,0E0,0E0],"parents":[2147483647,0,0,1,1,3,3],"right_children":[2,4,-1,6,-1,-1,-1],"split_conditions":[-1.039823E0,8E0,-1.13288924E-1,4.9E1,1.1388555E-1,5.5477664E-2,-1.16309784E-1],"split_indices":[19,18,0,9,0,0,0],"split_type":[0,0,0,0,0,0,0],"sum_hessian":[9.046607E0,5.0899215E0,3.9566858E0,2.1426623E0,2.947259E0,1.0837216E0,1.0589408E0],"tree_param":{"num_deleted":"0","num_feature":"20","num_nodes":"7","size_leaf_vector":"0"}},{"base_weights":[2.8379887E-1,1.324208E-1,-9.475061E-2],"categories":[],"categories_nodes":[],"categories_segments":[],"categories_sizes":[],"default_left":[0,0,0],"id":91,"left_children":[1,-1,-1],"loss_changes":[1.107085E0,0E0,0E0],"parents":[2147483647,0,0],"right_children":[2,-1,-1],"split_conditions":[8.1184764E-5,1.324208E-1,-9.475061E-2],"split_indices":[2,0,0],"split_type":[0,0,0],"sum_hessian":[9.239442E0,7.5253983E0,1.7140441E0],"tree_param":{"num_deleted":"0","num_feature":"20","num_nodes":"3","size_leaf_vector":"0"}},{"base_weights":[-2.3376435E-1,-1.23116024E-1,3.821638E-2,-7.984034E-2,5.4570552E-2,-6.6485204E-2,2.8484719E-2],"categories":[],"categories_nodes":[],"categories_segments":[],"categories_sizes":[],"default_left":[1,0,0,0,0,0,0],"id":92,"left_children":[1,-1,3,5,-1,-1,-1],"loss_changes":[4.5090726E-1,0E0,9.0549454E-2,9.923501E-2,0E0,0E0,0E0],"parents":[2147483647,0,0,2,2,3,3],"right_children":[2,-1,4,6,-1,-1,-1],"split_conditions":[-1.0491072E0,-1.23116024E-1,5E0,-1.0044643E0,5.4570552E-2,-6.6485204E-2,2.8484719E-2],"split_indices":[19,0,4,19,0,0,0],"split_type":[0,0,0,0,0,0,0],"sum_hessian":[8.060009E0,4.5781245E0,3.481884E0,2.1553316E0,1.3265524E0,1.0421232E0,1.1132085E0],"tree_param":{"num_deleted":"0","num_feature":"20","num_nodes":"7","size_leaf_vector":"0"}},{"base_weights":[-7.088503E-2,1.635358E-1,-1.0656387E-1,-3.7323084E-2,1.0829721E-1],"categories":[],"categories_nodes":[],"categories_segments":[],"categories_sizes":[],"default_left":[0,0,0,0,0],"id":93,"left_children":[1,3,-1,-1,-1],"loss_changes":[6.302033E-1,3.513335E-1,0E0,0E0,0E0],"parents":[2147483647,0,0,1,1],"right_children":[2,4,-1,-1,-1],"split_conditions":[-1.039823E0,8E0,-1.0656387E-1,-3.7323084E-2,1.0829721E-1],"split_indices":[19,18,0,0,0],"split_type":[0,0,0,0,0],"sum_hessian":[7.5835395E0,4.3894157E0,3.194124E0,1.9360409E0,2.4533746E0],"tree_param":{"num_deleted":"0","num_feature":"20","num_nodes":"5","size_leaf_vector":"0"}},{"base_weights":[2.686699E-1,1.2838571E-1,-8.846718E-2],"categories":[],"categories_nodes":[],"categories_segments":[],"categories_sizes":[],"default_left":[0,0,0],"id":94,"left_children":[1,-1,-1],"loss_changes":[8.7781715E-1,0E0,0E0],"parents":[2147483647,0,0],"right_children":[2,-1,-1],"split_conditions":[8.1184764E-5,1.2838571E-1,-8.846718E-2],"split_indices":[2,0,0],"split_type":[0,0,0],"sum_hessian":[7.373147E0,5.936037E0,1.4371097E0],"tree_param":{"num_deleted":"0","num_feature":"20","num_nodes":"3","size_leaf_vector":"0"}},{"base_weights":[-2.1133439E-1,-1.1726404E-1,3.5908066E-2,-2.3359811E-2,4.9668867E-2],"categories":[],"categories_nodes":[],"categories_segments":[],"categories_sizes":[],"default_left":[1,0,0,0,0],"id":95,"left_children":[1,-1,3,-1,-1],"loss_changes":[3.5865247E-1,0E0,7.457822E-2,0E0,0E0],"parents":[2147483647,0,0,2,2],"right_children":[2,-1,4,-1,-1],"split_conditions":[-1.0491072E0,-1.1726404E-1,5E0,-2.3359811E-2,4.9668867E-2],"split_indices":[19,0,4,0,0],"split_type":[0,0,0,0,0],"sum_hessian":[6.7631536E0,3.5814042E0,3.181749E0,1.9074066E0,1.2743425E0],"tree_param":{"num_deleted":"0","num_feature":"20","num_nodes":"5","size_leaf_vector":"0"}},{"base_weights":[-6.0709126E-2,1.5204798E-1,-9.983439E-2,-3.170954E-2,1.0273519E-1],"categories":[],"categories_nodes":[],"categories_segments":[],"categories_sizes":[],"default_left":[0,0,0,0,0],"id":96,"left_children":[1,3,-1,-1,-1],"loss_changes":[4.887441E-1,2.7833578E-1,0E0,0E0,0E0],"parents":[2147483647,0,0,1,1],"right_children":[2,4,-1,-1,-1],"split_conditions":[-1.039823E0,8E0,-9.983439E-2,-3.170954E-2,1.0273519E-1],"split_indices":[19,18,0,0,0],"split_type":[0,0,0,0,0],"sum_hessian":[6.569201E0,3.9340053E0,2.6351955E0,1.860428E0,2.0735772E0],"tree_param":{"num_deleted":"0","num_feature":"20","num_nodes":"5","size_leaf_vector":"0"}},{"base_weights":[2.5183195E-1,1.23854145E-1,-8.269152E-2],"categories":[],"categories_nodes":[],"categories_segments":[],"categories_sizes":[],"default_left":[0,0,0],"id":97,"left_children":[1,-1,-1],"loss_changes":[7.051785E-1,0E0,0E0],"parents":[2147483647,0,0],"right_children":[2,-1,-1],"split_conditions":[8.1184764E-5,1.23854145E-1,-8.269152E-2],"split_indices":[2,0,0],"split_type":[0,0,0],"sum_hessian":[5.9631095E0,4.735011E0,1.2280984E0],"tree_param":{"num_deleted":"0","num_feature":"20","num_nodes":"3","size_leaf_vector":"0"}},{"base_weights":[-1.8862744E-1,-1.10850364E-1,3.0296216E-2,-2.4742892E-2,4.769992E-2],"categories":[],"categories_nodes":[],"categories_segments":[],"categories_sizes":[],"default_left":[1,0,0,0,0],"id":98,"left_children":[1,-1,3,-1,-1],"loss_changes":[2.827508E-1,0E0,7.1560025E-2,0E0,0E0],"parents":[2147483647,0,0,2,2],"right_children":[2,-1,4,-1,-1],"split_conditions":[-1.0491072E0,-1.10850364E-1,5E0,-2.4742892E-2,4.769992E-2],"split_indices":[19,0,4,0,0],"split_type":[0,0,0,0,0],"sum_hessian":[5.857908E0,2.8310764E0,3.0268316E0,1.8046969E0,1.2221346E0],"tree_param":{"num_deleted":"0","num_feature":"20","num_nodes":"5","size_leaf_vector":"0"}},{"base_weights":[-5.1099557E-2,1.4194621E-1,-9.308961E-2,-2.7014563E-2,9.730318E-2],"categories":[],"categories_nodes":[],"categories_segments":[],"categories_sizes":[],"default_left":[0,0,0,0,0],"id":99,"left_children":[1,3,-1,-1,-1],"loss_changes":[3.832219E-1,2.2263558E-1,0E0,0E0,0E0],"parents":[2147483647,0,0,1,1],"right_children":[2,4,-1,-1,-1],"split_conditions":[-1.039823E0,8E0,-9.308961E-2,-2.7014563E-2,9.730318E-2],"split_indices":[19,18,0,0,0],"split_type":[0,0,0,0,0],"sum_hessian":[5.778467E0,3.5711327E0,2.2073345E0,1.7947131E0,1.7764195E0],"tree_param":{"num_deleted":"0","num_feature":"20","num_nodes":"5","size_leaf_vector":"0"}},{"base_weights":[2.3442101E-1,1.1891132E-1,-7.73233E-2],"categories":[],"categories_nodes":[],"categories_segments":[],"categories_sizes":[],"default_left":[0,0,0],"id":100,"left_children":[1,-1,-1],"loss_changes":[5.71422E-1,0E0,0E0],"parents":[2147483647,0,0],"right_children":[2,-1,-1],"split_conditions":[8.1184764E-5,1.1891132E-1,-7.73233E-2],"split_indices":[2,0,0],"split_type":[0,0,0],"sum_hessian":[4.8873677E0,3.823771E0,1.0635966E0],"tree_param":{"num_deleted":"0","num_feature":"20","num_nodes":"3","size_leaf_vector":"0"}},{"base_weights":[-1.677229E-1,-1.040634E-1,2.5715673E-2,-2.5791077E-2,4.5973975E-2],"categories":[],"categories_nodes":[],"categories_segments":[],"categories_sizes":[],"default_left":[1,0,0,0,0],"id":101,"left_children":[1,-1,3,-1,-1],"loss_changes":[2.2226931E-1,0E0,6.859749E-2,0E0,0E0],"parents":[2147483647,0,0,2,2],"right_children":[2,-1,4,-1,-1],"split_conditions":[-1.0491072E0,-1.040634E-1,5E0,-2.5791077E-2,4.5973975E-2],"split_indices":[19,0,4,0,0],"split_type":[0,0,0,0,0],"sum_hessian":[5.1562824E0,2.2651603E0,2.8911219E0,1.7150468E0,1.176075E0],"tree_param":{"num_deleted":"0","num_feature":"20","num_nodes":"5","size_leaf_vector":"0"}},{"base_weights":[-4.1974906E-2,1.3342972E-1,-8.65142E-2,-2.1709021E-2,9.371318E-2],"categories":[],"categories_nodes":[],"categories_segments":[],"categories_sizes":[],"default_left":[0,0,0,0,0],"id":102,"left_children":[1,3,-1,-1,-1],"loss_changes":[3.046671E-1,1.8027318E-1,0E0,0E0,0E0],"parents":[2147483647,0,0,1,1],"right_children":[2,4,-1,-1,-1],"split_conditions":[-1.039823E0,1.7E1,-8.65142E-2,-2.1709021E-2,9.371318E-2],"split_indices":[19,17,0,0,0],"split_type":[0,0,0,0,0],"sum_hessian":[5.1588197E0,3.2814243E0,1.8773954E0,1.8032587E0,1.4781657E0],"tree_param":{"num_deleted":"0","num_feature":"20","num_nodes":"5","size_leaf_vector":"0"}},{"base_weights":[2.163966E-1,1.1298355E-1,-6.4901076E-2],"categories":[],"categories_nodes":[],"categories_segments":[],"categories_sizes":[],"default_left":[0,0,0],"id":103,"left_children":[1,-1,-1],"loss_changes":[4.3171665E-1,0E0,0E0],"parents":[2147483647,0,0],"right_children":[2,-1,-1],"split_conditions":[1.1512376E-8,1.1298355E-1,-6.4901076E-2],"split_indices":[2,0,0],"split_type":[0,0,0],"sum_hessian":[4.051769E0,3.0516262E0,1.0001426E0],"tree_param":{"num_deleted":"0","num_feature":"20","num_nodes":"3","size_leaf_vector":"0"}},{"base_weights":[-1.4888072E-1,-2.5311366E-1,3.762362E-2,-5.854059E-3,-9.824505E-2],"categories":[],"categories_nodes":[],"categories_segments":[],"categories_sizes":[],"default_left":[0,0,0,0,0],"id":104,"left_children":[1,3,-1,-1,-1],"loss_changes":[1.920589E-1,6.9955796E-2,0E0,0E0,0E0],"parents":[2147483647,0,0,1,1],"right_children":[2,4,-1,-1,-1],"split_conditions":[5E0,4.7E1,3.762362E-2,-5.854059E-3,-9.824505E-2],"split_indices":[4,9,0,0,0],"split_type":[0,0,0,0,0],"sum_hessian":[4.607328E0,3.3945804E0,1.2127475E0,1.1245829E0,2.2699974E0],"tree_param":{"num_deleted":"0","num_feature":"20","num_nodes":"5","size_leaf_vector":"0"}},{"base_weights":[-3.8603224E-2,1.20809294E-1,-8.010019E-2,-2.3660975E-2,8.762589E-2],"categories":[],"categories_nodes":[],"categories_segments":[],"categories_sizes":[],"default_left":[0,0,0,0,0],"id":105,"left_children":[1,3,-1,-1,-1],"loss_changes":[2.3696244E-1,1.5982895E-1,0E0,0E0,0E0],"parents":[2147483647,0,0,1,1],"right_children":[2,4,-1,-1,-1],"split_conditions":[-1.039823E0,8E0,-8.010019E-2,-2.3660975E-2,8.762589E-2],"split_indices":[19,18,0,0,0],"split_type":[0,0,0,0,0],"sum_hessian":[4.622345E0,2.9997163E0,1.6226287E0,1.634127E0,1.3655894E0],"tree_param":{"num_deleted":"0","num_feature":"20","num_nodes":"5","size_leaf_vector":"0"}},{"base_weights":[2.0063148E-1,1.06568046E-1,-4.9889296E-2],"categories":[],"categories_nodes":[],"categories_segments":[],"categories_sizes":[],"default_left":[0,0,0],"id":106,"left_children":[1,-1,-1],"loss_changes":[3.117894E-1,0E0,0E0],"parents":[2147483647,0,0],"right_children":[2,-1,-1],"split_conditions":[1.1366179E-8,1.06568046E-1,-4.9889296E-2],"split_indices":[2,0,0],"split_type":[0,0,0],"sum_hessian":[3.4550662E0,2.4533207E0,1.0017455E0],"tree_param":{"num_deleted":"0","num_feature":"20","num_nodes":"3","size_leaf_vector":"0"}},{"base_weights":[-1.3127878E-1,-2.3707579E-1,3.7077073E-2,-4.317872E-3,-9.2716984E-2],"categories":[],"categories_nodes":[],"categories_segments":[],"categories_sizes":[],"default_left":[0,0,0,0,0],"id":107,"left_children":[1,3,-1,-1,-1],"loss_changes":[1.6851646E-1,5.952546E-2,0E0,0E0,0E0],"parents":[2147483647,0,0,1,1],"right_children":[2,4,-1,-1,-1],"split_conditions":[5E0,4.7E1,3.7077073E-2,-4.317872E-3,-9.2716984E-2],"split_indices":[4,9,0,0,0],"split_type":[0,0,0,0,0],"sum_hessian":[4.162967E0,2.9911456E0,1.1718216E0,1.0238072E0,1.9673384E0],"tree_param":{"num_deleted":"0","num_feature":"20","num_nodes":"5","size_leaf_vector":"0"}},{"base_weights":[-3.5618607E-2,-1.8640837E-1,5.1943514E-2,1.7002076E-2,-1.0199847E-1],"categories":[],"categories_nodes":[],"categories_segments":[],"categories_sizes":[],"default_left":[1,0,0,0,0],"id":108,"left_children":[1,3,-1,-1,-1],"loss_changes":[1.9607033E-1,1.5003708E-1,0E0,0E0,0E0],"parents":[2147483647,0,0,1,1],"right_children":[2,4,-1,-1,-1],"split_conditions":[5E0,4.8E1,5.1943514E-2,1.7002076E-2,-1.0199847E-1],"split_indices":[16,9,0,0,0],"split_type":[0,0,0,0,0],"sum_hessian":[4.203229E0,2.502651E0,1.700578E0,1.2133214E0,1.2893295E0],"tree_param":{"num_deleted":"0","num_feature":"20","num_nodes":"5","size_leaf_vector":"0"}},{"base_weights":[1.8570223E-1,-3.8659096E-2,1.00091465E-1],"categories":[],"categories_nodes":[],"categories_segments":[],"categories_sizes":[],"default_left":[0,0,0],"id":109,"left_children":[1,-1,-1],"loss_changes":[2.2955357E-1,0E0,0E0],"parents":[2147483647,0,0],"right_children":[2,-1,-1],"split_conditions":[5.139E4,-3.8659096E-2,1.00091465E-1],"split_indices":[10,0,0],"split_type":[0,0,0],"sum_hessian":[3.0089679E0,1.0036864E0,2.0052814E0],"tree_param":{"num_deleted":"0","num_feature":"20","num_nodes":"3","size_leaf_vector":"0"}},{"base_weights":[-1.1626341E-1,-2.22547E-1,3.629204E-2,-8.370077E-2,-2.3208458E-2],"categories":[],"categories_nodes":[],"categories_segments":[],"categories_sizes":[],"default_left":[0,1,0,0,0],"id":110,"left_children":[1,3,-1,-1,-1],"loss_changes":[1.4824142E-1,8.538216E-3,0E0,0E0,0E0],"parents":[2147483647,0,0,1,1],"right_children":[2,4,-1,-1,-1],"split_conditions":[5E0,-1.0491072E0,3.629204E-2,-8.370077E-2,-2.3208458E-2],"split_indices":[4,19,0,0,0],"split_type":[0,0,0,0,0],"sum_hessian":[3.811505E0,2.6750064E0,1.1364988E0,1.2624168E0,1.4125896E0],"tree_param":{"num_deleted":"0","num_feature":"20","num_nodes":"5","size_leaf_vector":"0"}},{"base_weights":[-3.0188449E-2,1.1345825E-1,-7.2476484E-2,-1.9013023E-2,8.233758E-2],"categories":[],"categories_nodes":[],"categories_segments":[],"categories_sizes":[],"default_left":[0,0,0,0,0],"id":111,"left_children":[1,3,-1,-1,-1],"loss_changes":[1.7829356E-1,1.2099458E-1,0E0,0E0,0E0],"parents":[2147483647,0,0,1,1],"right_children":[2,4,-1,-1,-1],"split_conditions":[-1.039823E0,1.7E1,-7.2476484E-2,-1.9013023E-2,8.233758E-2],"split_indices":[19,17,0,0,0],"split_type":[0,0,0,0,0],"sum_hessian":[3.9686809E0,2.6388655E0,1.3298155E0,1.5465577E0,1.0923077E0],"tree_param":{"num_deleted":"0","num_feature":"20","num_nodes":"5","size_leaf_vector":"0"}},{"base_weights":[1.6853271E-1,-3.1544004E-2,9.351121E-2],"categories":[],"categories_nodes":[],"categories_segments":[],"categories_sizes":[],"default_left":[0,0,0],"id":112,"left_children":[1,-1,-1],"loss_changes":[1.7618915E-1,0E0,0E0],"parents":[2147483647,0,0],"right_children":[2,-1,-1],"split_conditions":[5.1608E4,-3.1544004E-2,9.351121E-2],"split_indices":[10,0,0],"split_type":[0,0,0],"sum_hessian":[2.6601179E0,1.0048615E0,1.6552565E0],"tree_param":{"num_deleted":"0","num_feature":"20","num_nodes":"3","size_leaf_vector":"0"}},{"base_weights":[-1.0132474E-1,-1.99501E-1,3.20909E-2,-7.918739E-2,-1.7720554E-2],"categories":[],"categories_nodes":[],"categories_segments":[],"categories_sizes":[],"default_left":[0,0,0,0,0],"id":113,"left_children":[1,3,-1,-1,-1],"loss_changes":[1.15321815E-1,1.5841573E-2,0E0,0E0,0E0],"parents":[2147483647,0,0,1,1],"right_children":[2,4,-1,-1,-1],"split_conditions":[5E0,-1.039823E0,3.20909E-2,-7.918739E-2,-1.7720554E-2],"split_indices":[4,19,0,0,0],"split_type":[0,0,0,0,0],"sum_hessian":[3.5957592E0,2.4725692E0,1.1231899E0,1.0918255E0,1.3807439E0],"tree_param":{"num_deleted":"0","num_feature":"20","num_nodes":"5","size_leaf_vector":"0"}},{"base_weights":[-2.7796056E-2,1.0457332E-1,-6.731768E-2,-2.0505609E-2,7.752656E-2],"categories":[],"categories_nodes":[],"categories_segments":[],"categories_sizes":[],"default_left":[0,0,0,0,0],"id":114,"left_children":[1,3,-1,-1,-1],"loss_changes":[1.4533688E-1,1.1026969E-1,0E0,0E0,0E0],"parents":[2147483647,0,0,1,1],"right_children":[2,4,-1,-1,-1],"split_conditions":[-1.039823E0,8E0,-6.731768E-2,-2.0505609E-2,7.752656E-2],"split_indices":[19,18,0,0,0],"split_type":[0,0,0,0,0],"sum_hessian":[3.683164E0,2.4808643E0,1.2022997E0,1.429655E0,1.0512093E0],"tree_param":{"num_deleted":"0","num_feature":"20","num_nodes":"5","size_leaf_vector":"0"}},{"base_weights":[1.5656614E-1,8.7463275E-2,-2.497898E-2],"categories":[],"categories_nodes":[],"categories_segments":[],"categories_sizes":[],"default_left":[0,0,0],"id":115,"left_children":[1,-1,-1],"loss_changes":[1.3437814E-1,0E0,0E0],"parents":[2147483647,0,0],"right_children":[2,-1,-1],"split_conditions":[9.860463E-9,8.7463275E-2,-2.497898E-2],"split_indices":[2,0,0],"split_type":[0,0,0],"sum_hessian":[2.401217E0,1.3984983E0,1.0027187E0],"tree_param":{"num_deleted":"0","num_feature":"20","num_nodes":"3","size_leaf_vector":"0"}},{"base_weights":[-9.193838E-2,-1.8957582E-1,3.1627532E-2,-6.96586E-2,-1.9562306E-2],"categories":[],"categories_nodes":[],"categories_segments":[],"categories_sizes":[],"default_left":[0,0,0,0,0],"id":116,"left_children":[1,3,-1,-1,-1],"loss_changes":[1.0429247E-1,2.2678599E-3,0E0,0E0,0E0],"parents":[2147483647,0,0,1,1],"right_children":[2,4,-1,-1,-1],"split_conditions":[5E0,-1.0222223E0,3.1627532E-2,-6.96586E-2,-1.9562306E-2],"split_indices":[4,19,0,0,0],"split_type":[0,0,0,0,0],"sum_hessian":[3.3749943E0,2.28436E0,1.0906345E0,1.0556134E0,1.2287464E0],"tree_param":{"num_deleted":"0","num_feature":"20","num_nodes":"5","size_leaf_vector":"0"}},{"base_weights":[-2.5751755E-2,9.7111605E-2,-6.275946E-2,-2.0363122E-2,7.166849E-2],"categories":[],"categories_nodes":[],"categories_segments":[],"categories_sizes":[],"default_left":[0,0,0,0,0],"id":117,"left_children":[1,3,-1,-1,-1],"loss_changes":[1.2073246E-1,9.4608806E-2,0E0,0E0,0E0],"parents":[2147483647,0,0,1,1],"right_children":[2,4,-1,-1,-1],"split_conditions":[-1.039823E0,4E0,-6.275946E-2,-2.0363122E-2,7.166849E-2],"split_indices":[19,17,0,0,0],"split_type":[0,0,0,0,0],"sum_hessian":[3.4552813E0,2.3511941E0,1.1040869E0,1.3275869E0,1.0236074E0],"tree_param":{"num_deleted":"0","num_feature":"20","num_nodes":"5","size_leaf_vector":"0"}},{"base_weights":[1.4562112E-1,-1.9557767E-2,8.1579894E-2],"categories":[],"categories_nodes":[],"categories_segments":[],"categories_sizes":[],"default_left":[0,0,0],"id":118,"left_children":[1,-1,-1],"loss_changes":[1.0284688E-1,0E0,0E0],"parents":[2147483647,0,0],"right_children":[2,-1,-1],"split_conditions":[5.2835E4,-1.9557767E-2,8.1579894E-2],"split_indices":[10,0,0],"split_type":[0,0,0],"sum_hessian":[2.196562E0,1.0042878E0,1.1922741E0],"tree_param":{"num_deleted":"0","num_feature":"20","num_nodes":"3","size_leaf_vector":"0"}},{"base_weights":[-8.366915E-2,-5.398323E-2,3.099374E-2],"categories":[],"categories_nodes":[],"categories_segments":[],"categories_sizes":[],"default_left":[0,0,0],"id":119,"left_children":[1,-1,-1],"loss_changes":[9.411548E-2,0E0,0E0],"parents":[2147483647,0,0],"right_children":[2,-1,-1],"split_conditions":[5E0,-5.398323E-2,3.099374E-2],"split_indices":[4,0,0],"split_type":[0,0,0],"sum_hessian":[3.195451E0,2.134207E0,1.0612441E0],"tree_param":{"num_deleted":"0","num_feature":"20","num_nodes":"3","size_leaf_vector":"0"}},{"base_weights":[-2.4482947E-2,-4.4116825E-2,4.185337E-2],"categories":[],"categories_nodes":[],"categories_segments":[],"categories_sizes":[],"default_left":[1,0,0],"id":120,"left_children":[1,-1,-1],"loss_changes":[1.0668868E-1,0E0,0E0],"parents":[2147483647,0,0],"right_children":[2,-1,-1],"split_conditions":[5E0,-4.4116825E-2,4.185337E-2],"split_indices":[16,0,0],"split_type":[0,0,0],"sum_hessian":[3.286927E0,1.9401201E0,1.3468069E0],"tree_param":{"num_deleted":"0","num_feature":"20","num_nodes":"3","size_leaf_vector":"0"}},{"base_weights":[1.3292143E-1,7.5632036E-2,-1.6078424E-2],"categories":[],"categories_nodes":[],"categories_segments":[],"categories_sizes":[],"default_left":[0,0,0],"id":121,"left_children":[1,-1,-1],"loss_changes":[8.061186E-2,0E0,0E0],"parents":[2147483647,0,0],"right_children":[2,-1,-1],"split_conditions":[9.0427985E-9,7.5632036E-2,-1.6078424E-2],"split_indices":[2,0,0],"split_type":[0,0,0],"sum_hessian":[2.0184562E0,1.0169532E0,1.001503E0],"tree_param":{"num_deleted":"0","num_feature":"20","num_nodes":"3","size_leaf_vector":"0"}},{"base_weights":[-7.324092E-2,-5.041896E-2,2.9656153E-2],"categories":[],"categories_nodes":[],"categories_segments":[],"categories_sizes":[],"default_left":[0,0,0],"id":122,"left_children":[1,-1,-1],"loss_changes":[8.263183E-2,0E0,0E0],"parents":[2147483647,0,0],"right_children":[2,-1,-1],"split_conditions":[1E0,-5.041896E-2,2.9656153E-2],"split_indices":[6,0,0],"split_type":[0,0,0],"sum_hessian":[3.0456214E0,1.9787687E0,1.0668527E0],"tree_param":{"num_deleted":"0","num_feature":"20","num_nodes":"3","size_leaf_vector":"0"}},{"base_weights":[-2.2155298E-2,9.527781E-2,-5.934907E-2,5.5285543E-2,-1.385568E-2],"categories":[],"categories_nodes":[],"categories_segments":[],"categories_sizes":[],"default_left":[0,0,0,0,0],"id":123,"left_children":[1,3,-1,-1,-1],"loss_changes":[1.0560993E-1,4.8747458E-2,0E0,0E0,0E0],"parents":[2147483647,0,0,1,1],"right_children":[2,4,-1,-1,-1],"split_conditions":[-1.039823E0,3E0,-5.934907E-2,5.5285543E-2,-1.385568E-2],"split_indices":[19,4,0,0,0],"split_type":[0,0,0,0,0],"sum_hessian":[3.2055686E0,2.1955562E0,1.0100124E0,1.1618358E0,1.0337205E0],"tree_param":{"num_deleted":"0","num_feature":"20","num_nodes":"5","size_leaf_vector":"0"}},{"base_weights":[1.2071661E-1],"categories":[],"categories_nodes":[],"categories_segments":[],"categories_sizes":[],"default_left":[0],"id":124,"left_children":[-1],"loss_changes":[0E0],"parents":[2147483647],"right_children":[-1],"split_conditions":[3.6214985E-2],"split_indices":[0],"split_type":[0],"sum_hessian":[1.8812397E0],"tree_param":{"num_deleted":"0","num_feature":"20","num_nodes":"1","size_leaf_vector":"0"}},{"base_weights":[-6.394003E-2,-4.5216333E-2,2.8348109E-2],"categories":[],"categories_nodes":[],"categories_segments":[],"categories_sizes":[],"default_left":[0,0,0],"id":125,"left_children":[1,-1,-1],"loss_changes":[6.89019E-2,0E0,0E0],"parents":[2147483647,0,0],"right_children":[2,-1,-1],"split_conditions":[5E0,-4.5216333E-2,2.8348109E-2],"split_indices":[4,0,0],"split_type":[0,0,0],"sum_hessian":[2.9755259E0,1.9539452E0,1.0215806E0],"tree_param":{"num_deleted":"0","num_feature":"20","num_nodes":"3","size_leaf_vector":"0"}},{"base_weights":[-2.0006182E-2,-4.164421E-2,3.9200705E-2],"categories":[],"categories_nodes":[],"categories_segments":[],"categories_sizes":[],"default_left":[1,0,0],"id":126,"left_children":[1,-1,-1],"loss_changes":[9.166368E-2,0E0,0E0],"parents":[2147483647,0,0],"right_children":[2,-1,-1],"split_conditions":[5E0,-4.164421E-2,3.9200705E-2],"split_indices":[16,0,0],"split_type":[0,0,0],"sum_hessian":[3.107221E0,1.781345E0,1.3258758E0],"tree_param":{"num_deleted":"0","num_feature":"20","num_nodes":"3","size_leaf_vector":"0"}},{"base_weights":[1.0638193E-1],"categories":[],"categories_nodes":[],"categories_segments":[],"categories_sizes":[],"default_left":[0],"id":127,"left_children":[-1],"loss_changes":[0E0],"parents":[2147483647],"right_children":[-1],"split_conditions":[3.191458E-2],"split_indices":[0],"split_type":[0],"sum_hessian":[1.8130051E0],"tree_param":{"num_deleted":"0","num_feature":"20","num_nodes":"1","size_leaf_vector":"0"}},{"base_weights":[-5.573565E-2,-4.1121945E-2,2.4859944E-2],"categories":[],"categories_nodes":[],"categories_segments":[],"categories_sizes":[],"default_left":[0,0,0],"id":128,"left_children":[1,-1,-1],"loss_changes":[5.499588E-2,0E0,0E0],"parents":[2147483647,0,0],"right_children":[2,-1,-1],"split_conditions":[1E0,-4.1121945E-2,2.4859944E-2],"split_indices":[6,0,0],"split_type":[0,0,0],"sum_hessian":[2.8707514E0,1.8160493E0,1.054702E0],"tree_param":{"num_deleted":"0","num_feature":"20","num_nodes":"3","size_leaf_vector":"0"}},{"base_weights":[-1.6226696E-2,-3.803817E-2,3.626018E-2],"categories":[],"categories_nodes":[],"categories_segments":[],"categories_sizes":[],"default_left":[1,0,0],"id":129,"left_children":[1,-1,-1],"loss_changes":[7.704087E-2,0E0,0E0],"parents":[2147483647,0,0],"right_children":[2,-1,-1],"split_conditions":[5E0,-3.803817E-2,3.626018E-2],"split_indices":[16,0,0],"split_type":[0,0,0],"sum_hessian":[3.0714636E0,1.7418118E0,1.3296517E0],"tree_param":{"num_deleted":"0","num_feature":"20","num_nodes":"3","size_leaf_vector":"0"}},{"base_weights":[9.133132E-2],"categories":[],"categories_nodes":[],"categories_segments":[],"categories_sizes":[],"default_left":[0],"id":130,"left_children":[-1],"loss_changes":[0E0],"parents":[2147483647],"right_children":[-1],"split_conditions":[2.7399397E-2],"split_indices":[0],"split_type":[0],"sum_hessian":[1.7458586E0],"tree_param":{"num_deleted":"0","num_feature":"20","num_nodes":"1","size_leaf_vector":"0"}},{"base_weights":[-4.8147302E-2,-3.6876068E-2,2.3369797E-2],"categories":[],"categories_nodes":[],"categories_segments":[],"categories_sizes":[],"default_left":[0,0,0],"id":131,"left_children":[1,-1,-1],"loss_changes":[4.5742847E-2,0E0,0E0],"parents":[2147483647,0,0],"right_children":[2,-1,-1],"split_conditions":[4E0,-3.6876068E-2,2.3369797E-2],"split_indices":[4,0,0],"split_type":[0,0,0],"sum_hessian":[2.8374457E0,1.7965226E0,1.0409231E0],"tree_param":{"num_deleted":"0","num_feature":"20","num_nodes":"3","size_leaf_vector":"0"}},{"base_weights":[-1.3397618E-2,-3.4754768E-2,3.3376493E-2],"categories":[],"categories_nodes":[],"categories_segments":[],"categories_sizes":[],"default_left":[1,0,0],"id":132,"left_children":[1,-1,-1],"loss_changes":[6.451509E-2,0E0,0E0],"parents":[2147483647,0,0],"right_children":[2,-1,-1],"split_conditions":[5E0,-3.4754768E-2,3.3376493E-2],"split_indices":[16,0,0],"split_type":[0,0,0],"sum_hessian":[3.042507E0,1.7087299E0,1.3337771E0],"tree_param":{"num_deleted":"0","num_feature":"20","num_nodes":"3","size_leaf_vector":"0"}},{"base_weights":[7.877511E-2],"categories":[],"categories_nodes":[],"categories_segments":[],"categories_sizes":[],"default_left":[0],"id":133,"left_children":[-1],"loss_changes":[0E0],"parents":[2147483647],"right_children":[-1],"split_conditions":[2.3632534E-2],"split_indices":[0],"split_type":[0],"sum_hessian":[1.6953084E0],"tree_param":{"num_deleted":"0","num_feature":"20","num_nodes":"1","size_leaf_vector":"0"}},{"base_weights":[-4.14731E-2,-3.318488E-2,2.2136867E-2],"categories":[],"categories_nodes":[],"categories_segments":[],"categories_sizes":[],"default_left":[0,0,0],"id":134,"left_children":[1,-1,-1],"loss_changes":[3.8550965E-2,0E0,0E0],"parents":[2147483647,0,0],"right_children":[2,-1,-1],"split_conditions":[1E0,-3.318488E-2,2.2136867E-2],"split_indices":[6,0,0],"split_type":[0,0,0],"sum_hessian":[2.8130581E0,1.7834957E0,1.0295626E0],"tree_param":{"num_deleted":"0","num_feature":"20","num_nodes":"3","size_leaf_vector":"0"}},{"base_weights":[-1.1019529E-2,-3.177272E-2,3.0720372E-2],"categories":[],"categories_nodes":[],"categories_segments":[],"categories_sizes":[],"default_left":[1,0,0],"id":135,"left_children":[1,-1,-1],"loss_changes":[5.411499E-2,0E0,0E0],"parents":[2147483647,0,0],"right_children":[2,-1,-1],"split_conditions":[5E0,-3.177272E-2,3.0720372E-2],"split_indices":[16,0,0],"split_type":[0,0,0],"sum_hessian":[3.0204408E0,1.6806294E0,1.3398114E0],"tree_param":{"num_deleted":"0","num_feature":"20","num_nodes":"3","size_leaf_vector":"0"}},{"base_weights":[6.7528695E-2],"categories":[],"categories_nodes":[],"categories_segments":[],"categories_sizes":[],"default_left":[0],"id":136,"left_children":[-1],"loss_changes":[0E0],"parents":[2147483647],"right_children":[-1],"split_conditions":[2.025861E-2],"split_indices":[0],"split_type":[0],"sum_hessian":[1.6530261E0],"tree_param":{"num_deleted":"0","num_feature":"20","num_nodes":"1","size_leaf_vector":"0"}},{"base_weights":[-3.5592742E-2,1.3007597E-2,-3.8387325E-2],"categories":[],"categories_nodes":[],"categories_segments":[],"categories_sizes":[],"default_left":[0,0,0],"id":137,"left_children":[1,-1,-1],"loss_changes":[3.3225585E-2,0E0,0E0],"parents":[2147483647,0,0],"right_children":[2,-1,-1],"split_conditions":[4.3E1,1.3007597E-2,-3.8387325E-2],"split_indices":[18,0,0],"split_type":[0,0,0],"sum_hessian":[2.7954195E0,1.7932042E0,1.0022153E0],"tree_param":{"num_deleted":"0","num_feature":"20","num_nodes":"3","size_leaf_vector":"0"}},{"base_weights":[-7.924631E-3,-2.8061645E-2,2.6936812E-2],"categories":[],"categories_nodes":[],"categories_segments":[],"categories_sizes":[],"default_left":[1,0,0],"id":138,"left_children":[1,-1,-1],"loss_changes":[4.1887775E-2,0E0,0E0],"parents":[2147483647,0,0],"right_children":[2,-1,-1],"split_conditions":[4E0,-2.8061645E-2,2.6936812E-2],"split_indices":[16,0,0],"split_type":[0,0,0],"sum_hessian":[3.0031273E0,1.6234425E0,1.3796848E0],"tree_param":{"num_deleted":"0","num_feature":"20","num_nodes":"3","size_leaf_vector":"0"}},{"base_weights":[5.9299283E-2],"categories":[],"categories_nodes":[],"categories_segments":[],"categories_sizes":[],"default_left":[0],"id":139,"left_children":[-1],"loss_changes":[0E0],"parents":[2147483647],"right_children":[-1],"split_conditions":[1.7789785E-2],"split_indices":[0],"split_type":[0],"sum_hessian":[1.6213137E0],"tree_param":{"num_deleted":"0","num_feature":"20","num_nodes":"1","size_leaf_vector":"0"}},{"base_weights":[-3.273563E-2,-3.1399112E-2,2.0024285E-2],"categories":[],"categories_nodes":[],"categories_segments":[],"categories_sizes":[],"default_left":[0,0,0],"id":140,"left_children":[1,-1,-1],"loss_changes":[3.407261E-2,0E0,0E0],"parents":[2147483647,0,0],"right_children":[2,-1,-1],"split_conditions":[-1.039823E0,-3.1399112E-2,2.0024285E-2],"split_indices":[19,0,0],"split_type":[0,0,0],"sum_hessian":[2.7853453E0,1.5863289E0,1.1990165E0],"tree_param":{"num_deleted":"0","num_feature":"20","num_nodes":"3","size_leaf_vector":"0"}},{"base_weights":[-9.305165E-3,-2.682871E-2,2.4962949E-2],"categories":[],"categories_nodes":[],"categories_segments":[],"categories_sizes":[],"default_left":[1,0,0],"id":141,"left_children":[1,-1,-1],"loss_changes":[3.6784604E-2,0E0,0E0],"parents":[2147483647,0,0],"right_children":[2,-1,-1],"split_conditions":[4E0,-2.682871E-2,2.4962949E-2],"split_indices":[16,0,0],"split_type":[0,0,0],"sum_hessian":[2.9585295E0,1.6033142E0,1.3552154E0],"tree_param":{"num_deleted":"0","num_feature":"20","num_nodes":"3","size_leaf_vector":"0"}},{"base_weights":[5.5737916E-2],"categories":[],"categories_nodes":[],"categories_segments":[],"categories_sizes":[],"default_left":[0],"id":142,"left_children":[-1],"loss_changes":[0E0],"parents":[2147483647],"right_children":[-1],"split_conditions":[1.6721375E-2],"split_indices":[0],"split_type":[0],"sum_hessian":[1.6038905E0],"tree_param":{"num_deleted":"0","num_feature":"20","num_nodes":"1","size_leaf_vector":"0"}},{"base_weights":[-2.864457E-2,-2.9929202E-2,1.9724155E-2],"categories":[],"categories_nodes":[],"categories_segments":[],"categories_sizes":[],"default_left":[0,0,0],"id":143,"left_children":[1,-1,-1],"loss_changes":[3.175638E-2,0E0,0E0],"parents":[2147483647,0,0],"right_children":[2,-1,-1],"split_conditions":[2E0,-2.9929202E-2,1.9724155E-2],"split_indices":[4,0,0],"split_type":[0,0,0],"sum_hessian":[2.753441E0,1.5378408E0,1.2156003E0],"tree_param":{"num_deleted":"0","num_feature":"20","num_nodes":"3","size_leaf_vector":"0"}},{"base_weights":[-7.561908E-3,-2.3978429E-2,2.3497308E-2],"categories":[],"categories_nodes":[],"categories_segments":[],"categories_sizes":[],"default_left":[1,0,0],"id":144,"left_children":[1,-1,-1],"loss_changes":[3.0790787E-2,0E0,0E0],"parents":[2147483647,0,0],"right_children":[2,-1,-1],"split_conditions":[5E0,-2.3978429E-2,2.3497308E-2],"split_indices":[16,0,0],"split_type":[0,0,0],"sum_hessian":[2.9468126E0,1.6369345E0,1.3098781E0],"tree_param":{"num_deleted":"0","num_feature":"20","num_nodes":"3","size_leaf_vector":"0"}},{"base_weights":[4.7754E-2],"categories":[],"categories_nodes":[],"categories_segments":[],"categories_sizes":[],"default_left":[0],"id":145,"left_children":[-1],"loss_changes":[0E0],"parents":[2147483647],"right_children":[-1],"split_conditions":[1.4326201E-2],"split_indices":[0],"split_type":[0],"sum_hessian":[1.5759993E0],"tree_param":{"num_deleted":"0","num_feature":"20","num_nodes":"1","size_leaf_vector":"0"}},{"base_weights":[-2.4958227E-2,-3.0533683E-2,2.248708E-2],"categories":[],"categories_nodes":[],"categories_segments":[],"categories_sizes":[],"default_left":[0,0,0],"id":146,"left_children":[1,-1,-1],"loss_changes":[3.6370423E-2,0E0,0E0],"parents":[2147483647,0,0],"right_children":[2,-1,-1],"split_conditions":[-1.039823E0,-3.0533683E-2,2.248708E-2],"split_indices":[19,0,0],"split_type":[0,0,0],"sum_hessian":[2.744536E0,1.5410396E0,1.2034965E0],"tree_param":{"num_deleted":"0","num_feature":"20","num_nodes":"3","size_leaf_vector":"0"}},{"base_weights":[-8.841782E-3,-2.361206E-2,2.1498293E-2],"categories":[],"categories_nodes":[],"categories_segments":[],"categories_sizes":[],"default_left":[1,0,0],"id":147,"left_children":[1,-1,-1],"loss_changes":[2.761049E-2,0E0,0E0],"parents":[2147483647,0,0],"right_children":[2,-1,-1],"split_conditions":[4E0,-2.361206E-2,2.1498293E-2],"split_indices":[16,0,0],"split_type":[0,0,0],"sum_hessian":[2.906292E0,1.5678912E0,1.3384006E0],"tree_param":{"num_deleted":"0","num_feature":"20","num_nodes":"3","size_leaf_vector":"0"}},{"base_weights":[4.5019537E-2],"categories":[],"categories_nodes":[],"categories_segments":[],"categories_sizes":[],"default_left":[0],"id":148,"left_children":[-1],"loss_changes":[0E0],"parents":[2147483647],"right_children":[-1],"split_conditions":[1.3505862E-2],"split_indices":[0],"split_type":[0],"sum_hessian":[1.5619814E0],"tree_param":{"num_deleted":"0","num_feature":"20","num_nodes":"1","size_leaf_vector":"0"}},{"base_weights":[-2.1878174E-2,-2.88125E-2,2.184317E-2],"categories":[],"categories_nodes":[],"categories_segments":[],"categories_sizes":[],"default_left":[0,0,0],"id":149,"left_children":[1,-1,-1],"loss_changes":[3.3075538E-2,0E0,0E0],"parents":[2147483647,0,0],"right_children":[2,-1,-1],"split_conditions":[-1.039823E0,-2.88125E-2,2.184317E-2],"split_indices":[19,0,0],"split_type":[0,0,0],"sum_hessian":[2.7141879E0,1.5140464E0,1.2001415E0],"tree_param":{"num_deleted":"0","num_feature":"20","num_nodes":"3","size_leaf_vector":"0"}},{"base_weights":[-9.956075E-3,-2.2753138E-2,2.008221E-2],"categories":[],"categories_nodes":[],"categories_segments":[],"categories_sizes":[],"default_left":[1,0,0],"id":150,"left_children":[1,-1,-1],"loss_changes":[2.4681864E-2,0E0,0E0],"parents":[2147483647,0,0],"right_children":[2,-1,-1],"split_conditions":[4E0,-2.2753138E-2,2.008221E-2],"split_indices":[16,0,0],"split_type":[0,0,0],"sum_hessian":[2.8694613E0,1.5527267E0,1.3167347E0],"tree_param":{"num_deleted":"0","num_feature":"20","num_nodes":"3","size_leaf_vector":"0"}},{"base_weights":[4.2845417E-2],"categories":[],"categories_nodes":[],"categories_segments":[],"categories_sizes":[],"default_left":[0],"id":151,"left_children":[-1],"loss_changes":[0E0],"parents":[2147483647],"right_children":[-1],"split_conditions":[1.2853625E-2],"split_indices":[0],"split_type":[0],"sum_hessian":[1.5506463E0],"tree_param":{"num_deleted":"0","num_feature":"20","num_nodes":"1","size_leaf_vector":"0"}},{"base_weights":[-1.9221218E-2,-2.7259564E-2,2.121026E-2],"categories":[],"categories_nodes":[],"categories_segments":[],"categories_sizes":[],"default_left":[0,0,0],"id":152,"left_children":[1,-1,-1],"loss_changes":[3.017718E-2,0E0,0E0],"parents":[2147483647,0,0],"right_children":[2,-1,-1],"split_conditions":[-1.039823E0,-2.7259564E-2,2.121026E-2],"split_indices":[19,0,0],"split_type":[0,0,0],"sum_hessian":[2.6869822E0,1.4896439E0,1.1973382E0],"tree_param":{"num_deleted":"0","num_feature":"20","num_nodes":"3","size_leaf_vector":"0"}},{"base_weights":[-1.0830732E-2,-2.1912705E-2,1.8800024E-2],"categories":[],"categories_nodes":[],"categories_segments":[],"categories_sizes":[],"default_left":[1,0,0],"id":153,"left_children":[1,-1,-1],"loss_changes":[2.2115288E-2,0E0,0E0],"parents":[2147483647,0,0],"right_children":[2,-1,-1],"split_conditions":[4E0,-2.1912705E-2,1.8800024E-2],"split_indices":[16,0,0],"split_type":[0,0,0],"sum_hessian":[2.8356173E0,1.5390704E0,1.2965469E0],